{"learner":{"attributes":{"scikit_learn":"{\"_estimator_type\": \"regressor\"}"},"feature_names":[],"feature_types":[],"gradient_booster":{"model":{"cats":{"enc":[],"feature_segments":[],"sorted_idx":[]},"gbtree_model_param":{"num_parallel_tree":"1","num_trees":"200"},"iteration_indptr":[0,1,2,3,4,5,6,7,8,9,10,11,12,13,14,15,16,17,18,19,20,21,22,23,24,25,26,27,28,29,30,31,32,33,34,35,36,37,38,39,40,41,42,43,44,45,46,47,48,49,50,51,52,53,54,55,56,57,58,59,60,61,62,63,64,65,66,67,68,69,70,71,72,73,74,75,76,77,78,79,80,81,82,83,84,85,86,87,88,89,90,91,92,93,94,95,96,97,98,99,100,101,102,103,104,105,106,107,108,109,110,111,112,113,114,115,116,117,118,119,120,121,122,123,124,125,126,127,128,129,130,131,132,133,134,135,136,137,138,139,140,141,142,143,144,145,146,147,148,149,150,151,152,153,154,155,156,157,158,159,160,161,162,163,164,165,166,167,168,169,170,171,172,173,174,175,176,177,178,179,180,181,182,183,184,185,186,187,188,189,190,191,192,193,194,195,196,197,198,199,200],"tree_info":[0,0,0,0,0,0,0,0,0,0,0,0,0,0,0,0,0,0,0,0,0,0,0,0,0,0,0,0,0,0,0,0,0,0,0,0,0,0,0,0,0,0,0,0,0,0,0,0,0,0,0,0,0,0,0,0,0,0,0,0,0,0,0,0,0,0,0,0,0,0,0,0,0,0,0,0,0,0,0,0,0,0,0,0,0,0,0,0,0,0,0,0,0,0,0,0,0,0,0,0,0,0,0,0,0,0,0,0,0,0,0,0,0,0,0,0,0,0,0,0,0,0,0,0,0,0,0,0,0,0,0,0,0,0,0,0,0,0,0,0,0,0,0,0,0,0,0,0,0,0,0,0,0,0,0,0,0,0,0,0,0,0,0,0,0,0,0,0,0,0,0,0,0,0,0,0,0,0,0,0,0,0,0,0,0,0,0,0,0,0,0,0,0,0,0,0,0,0,0,0],"trees":[{"base_weights":[-7.689929E-4,-1.5663534E-1,1.4236987E-1,-2.6752332E-1,-9.057198E-2,5.5715833E-2,2.3407376E-1,-1.5437337E-2,-2.2195454E-1,-1.4078319E-1,-6.0059838E-2,3.3553608E-2,1.0820807E-1,1.8952668E-1,3.450638E-1,-1.17783155E-2,-1.8644494E-1,-1.5453704E-1,-1.05843335E-1,-8.7046206E-2,-3.759357E-2,1.1730686E-2,4.885516E-2,1.175771E-1,6.780992E-2,1.6454758E-1,2.218987E-1,3.1896436E-1,2.3104953E-2,-9.469674E-3,-2.1548637E-3,-1.2953188E-1,-1.6507702E-1,-1.23889625E-1,-4.8899624E-2,-9.779147E-2,-4.625857E-2,-1.9630091E-2,-6.787222E-2,2.2797758E-2,-5.176477E-2,7.959542E-2,3.891793E-2,1.2404041E-1,6.0576174E-2,-7.262923E-4,7.2652996E-2,1.7276353E-1,9.880652E-2,1.881152E-1,1.1830444E-2,2.3148453E-1,3.3498424E-1,-1.7767124E-3,-6.5651755E-3,-8.51377E-3,-4.2356974E-3,-4.8930515E-3,-8.234206E-3,-3.0804353E-3,4.8819283E-4,-3.1777744E-3,-5.4928004E-3,2.2006036E-5,-2.9285431E-3,-1.4584104E-3,1.1066893E-3,-3.7639276E-3,-1.7407263E-4,2.0921277E-3,-2.8022975E-4,-6.222519E-4,-3.5090067E-3,4.8242905E-3,2.099837E-3,7.0744235E-4,2.7352448E-3,6.5296255E-3,3.5834305E-3,-3.1212717E-4,4.505228E-3,4.3594553E-3,1.6600894E-3,5.794029E-3,8.940894E-3,7.440574E-3,1.197476E-3,1.4685855E-3,9.85594E-3,1.2138567E-2,1.8367328E-3,1.6879536E-2,4.3997588E-3],"categories":[],"categories_nodes":[],"categories_segments":[],"categories_sizes":[],"default_left":[0,0,0,0,0,0,0,0,0,0,0,0,0,0,0,0,0,0,0,0,0,0,0,0,0,0,0,0,0,0,0,0,0,0,0,0,0,0,0,0,0,0,0,0,0,0,0,0,0,0,0,0,0,0,0,0,0,0,0,0,0,0,0,0,0,0,0,0,0,0,0,0,0,0,0,0,0,0,0,0,0,0,0,0,0,0,0,0,0,0,0,0,0],"id":0,"left_children":[1,3,5,7,9,11,13,-1,15,17,19,21,23,25,27,-1,29,31,33,35,37,39,41,43,45,47,49,51,-1,-1,-1,53,55,57,59,61,63,65,67,69,71,73,75,77,79,-1,81,83,85,87,-1,89,91,-1,-1,-1,-1,-1,-1,-1,-1,-1,-1,-1,-1,-1,-1,-1,-1,-1,-1,-1,-1,-1,-1,-1,-1,-1,-1,-1,-1,-1,-1,-1,-1,-1,-1,-1,-1,-1,-1,-1,-1],"loss_changes":[2.77766E1,4.3418446E0,5.144245E0,3.4850025E-1,5.660641E-1,3.8608968E-1,1.4920502E0,0E0,8.764267E-3,5.1401854E-2,1.3920414E-1,7.856703E-2,2.9497862E-2,1.4704514E-1,1.2446213E-1,0E0,6.6310167E-3,4.709244E-3,3.8129658E-2,4.1933358E-2,6.937595E-2,7.074829E-2,3.9363056E-2,2.1590948E-2,9.429276E-3,5.4226637E-2,3.1986237E-3,2.8963566E-2,0E0,0E0,0E0,9.961724E-4,1.3147354E-2,1.78622E-2,9.548247E-3,2.7300477E-2,1.3825007E-2,3.3708546E-2,2.2629097E-2,4.6212457E-2,9.987917E-3,1.6904786E-2,4.1066036E-2,1.4660716E-2,2.0292968E-2,0E0,8.574508E-3,1.9227505E-2,6.0070813E-2,4.2805076E-2,0E0,2.4053454E-2,1.0207176E-2,0E0,0E0,0E0,0E0,0E0,0E0,0E0,0E0,0E0,0E0,0E0,0E0,0E0,0E0,0E0,0E0,0E0,0E0,0E0,0E0,0E0,0E0,0E0,0E0,0E0,0E0,0E0,0E0,0E0,0E0,0E0,0E0,0E0,0E0,0E0,0E0,0E0,0E0,0E0,0E0],"parents":[2147483647,0,0,1,1,2,2,3,3,4,4,5,5,6,6,8,8,9,9,10,10,11,11,12,12,13,13,14,14,16,16,17,17,18,18,19,19,20,20,21,21,22,22,23,23,24,24,25,25,26,26,27,27,31,31,32,32,33,33,34,34,35,35,36,36,37,37,38,38,39,39,40,40,41,41,42,42,43,43,44,44,46,46,47,47,48,48,49,49,51,51,52,52],"right_children":[2,4,6,8,10,12,14,-1,16,18,20,22,24,26,28,-1,30,32,34,36,38,40,42,44,46,48,50,52,-1,-1,-1,54,56,58,60,62,64,66,68,70,72,74,76,78,80,-1,82,84,86,88,-1,90,92,-1,-1,-1,-1,-1,-1,-1,-1,-1,-1,-1,-1,-1,-1,-1,-1,-1,-1,-1,-1,-1,-1,-1,-1,-1,-1,-1,-1,-1,-1,-1,-1,-1,-1,-1,-1,-1,-1,-1,-1],"split_conditions":[5.993091E-1,3.5513875E-1,8.563372E-1,2.7949972E-2,4.5406047E-1,7.6721466E-1,1.1475028E0,-1.5437337E-2,2.26057E-1,4.2578486E-1,5.102397E-1,6.584492E-1,4.4631302E-2,9.969708E-1,6.3724184E-1,-1.17783155E-2,4.5428425E-4,1.174139E-2,2.0982586E-3,1.1847332E-2,2.018E3,2.019E3,2.016E3,6E0,4.5249447E-2,3.46E2,5E0,2.016E3,2.3104953E-2,-9.469674E-3,-2.1548637E-3,5.6769967E-2,9.472251E-2,4E0,2.165774E-2,2.016E3,2E0,1.3447665E-1,1.2015223E-1,2.2297382E-2,2E0,3.9868203E-1,1.2285014E-2,1.9583419E-2,4.515187E-3,-7.262923E-4,1.4748307E-1,1.4834021E-1,4.7915372E-1,1.0020868E0,1.1830444E-2,3.44E2,5.5485032E-2,-1.7767124E-3,-6.5651755E-3,-8.51377E-3,-4.2356974E-3,-4.8930515E-3,-8.234206E-3,-3.0804353E-3,4.8819283E-4,-3.1777744E-3,-5.4928004E-3,2.2006036E-5,-2.9285431E-3,-1.4584104E-3,1.1066893E-3,-3.7639276E-3,-1.7407263E-4,2.0921277E-3,-2.8022975E-4,-6.222519E-4,-3.5090067E-3,4.8242905E-3,2.099837E-3,7.0744235E-4,2.7352448E-3,6.5296255E-3,3.5834305E-3,-3.1212717E-4,4.505228E-3,4.3594553E-3,1.6600894E-3,5.794029E-3,8.940894E-3,7.440574E-3,1.197476E-3,1.4685855E-3,9.85594E-3,1.2138567E-2,1.8367328E-3,1.6879536E-2,4.3997588E-3],"split_indices":[10,10,10,12,10,10,10,0,0,10,10,10,3,10,0,0,14,3,15,15,20,20,20,18,3,19,16,20,0,0,0,12,12,18,15,20,18,12,12,3,18,0,3,15,3,0,12,12,0,10,0,19,3,0,0,0,0,0,0,0,0,0,0,0,0,0,0,0,0,0,0,0,0,0,0,0,0,0,0,0,0,0,0,0,0,0,0,0,0,0,0,0,0],"split_type":[0,0,0,0,0,0,0,0,0,0,0,0,0,0,0,0,0,0,0,0,0,0,0,0,0,0,0,0,0,0,0,0,0,0,0,0,0,0,0,0,0,0,0,0,0,0,0,0,0,0,0,0,0,0,0,0,0,0,0,0,0,0,0,0,0,0,0,0,0,0,0,0,0,0,0,0,0,0,0,0,0,0,0,0,0,0,0,0,0,0,0,0,0],"sum_hessian":[1.243E3,5.95E2,6.48E2,2.21E2,3.74E2,3.34E2,3.14E2,1.13E2,1.08E2,1.4E2,2.34E2,2.36E2,9.8E1,2.26E2,8.8E1,7.4E1,3.4E1,9.8E1,4.2E1,1.05E2,1.29E2,9.8E1,1.38E2,7.8E1,2E1,1.31E2,9.5E1,7.5E1,1.3E1,3.3E1,1E0,3.3E1,6.5E1,3.1E1,1.1E1,8.2E1,2.3E1,8.2E1,4.7E1,8.4E1,1.4E1,3.2E1,1.06E2,6.9E1,9E0,1E0,1.9E1,1.15E2,1.6E1,3.3E1,6.2E1,1.4E1,6.1E1,1E0,3.2E1,6E1,5E0,2.1E1,1E1,9E0,2E0,2.3E1,5.9E1,5E0,1.8E1,6.7E1,1.5E1,4.2E1,5E0,5E1,3.4E1,5E0,9E0,2.1E1,1.1E1,4.2E1,6.4E1,6E1,9E0,3E0,6E0,1.3E1,6E0,1.3E1,1.02E2,9E0,7E0,2E0,3.1E1,1.3E1,1E0,6E1,1E0],"tree_param":{"num_deleted":"0","num_feature":"21","num_nodes":"93","size_leaf_vector":"1"}},{"base_weights":[1.0131426E-3,-1.4820695E-1,1.3591023E-1,-2.3424643E-1,-7.4495465E-2,7.682148E-2,2.6264837E-1,-2.771374E-1,-1.8261893E-1,-1.0940568E-1,-5.0458405E-2,3.3814125E-2,1.246057E-1,2.2195973E-1,3.488224E-1,-1.5393068E-2,-1.233997E-2,-1.8511114E-1,-4.289204E-3,-1.2046821E-1,-7.527789E-2,-6.128071E-2,-2.4321122E-2,1.314753E-2,5.3675562E-2,9.338326E-2,1.456768E-1,1.86446E-1,1.1990708E-2,1.1458503E-2,1.8336818E-2,-9.352895E-3,-5.1267166E-3,-1.31388E-1,-8.643536E-2,-1.0949108E-1,-4.58541E-2,-6.693488E-2,-1.2338904E-2,-5.064199E-2,-1.2814394E-2,2.9189564E-2,-5.811649E-3,6.257875E-2,-3.4246813E-3,1.0377423E-1,5.9957337E-2,1.3345048E-1,8.343729E-3,9.523691E-3,4.524687E-3,-6.682609E-3,6.210059E-4,-6.175823E-3,-3.1546429E-3,-1.7642099E-3,-7.1533057E-3,-3.9941105E-3,-1.2782373E-3,-4.5777704E-3,-2.7127098E-3,8.101931E-4,-3.6332605E-3,-3.1986728E-3,-1.1228988E-3,-1.587339E-4,-3.4258482E-3,7.994735E-4,4.506821E-3,-2.0887086E-3,3.9097937E-4,3.4009663E-3,-9.013547E-5,-2.13263E-3,2.9354214E-3,9.132385E-3,4.632874E-3,-2.1418893E-4,3.4903847E-3,7.671205E-3,5.7845023E-3],"categories":[],"categories_nodes":[],"categories_segments":[],"categories_sizes":[],"default_left":[0,0,0,0,0,0,0,0,0,0,0,0,0,0,0,0,0,0,0,0,0,0,0,0,0,0,0,0,0,0,0,0,0,0,0,0,0,0,0,0,0,0,0,0,0,0,0,0,0,0,0,0,0,0,0,0,0,0,0,0,0,0,0,0,0,0,0,0,0,0,0,0,0,0,0,0,0,0,0,0,0],"id":1,"left_children":[1,3,5,7,9,11,13,15,17,19,21,23,25,27,29,-1,-1,31,-1,33,35,37,39,41,43,45,47,49,-1,-1,-1,-1,-1,51,53,55,57,59,61,63,65,67,69,71,73,75,77,79,-1,-1,-1,-1,-1,-1,-1,-1,-1,-1,-1,-1,-1,-1,-1,-1,-1,-1,-1,-1,-1,-1,-1,-1,-1,-1,-1,-1,-1,-1,-1,-1,-1],"loss_changes":[2.4759123E1,3.6863356E0,4.817587E0,5.4504967E-1,2.5964737E-1,9.041288E-1,6.413679E-1,5.917549E-2,1.4287472E-2,3.9256454E-2,5.1971197E-2,9.534389E-2,1.23895645E-1,4.532671E-2,5.313492E-2,0E0,0E0,2.7179718E-4,0E0,2.3948431E-2,2.9206559E-2,3.5978615E-2,1.6614474E-2,3.545032E-2,6.0710847E-2,2.3995578E-2,9.608507E-3,2.8600693E-3,0E0,0E0,0E0,0E0,0E0,2.4452448E-2,1.4711693E-2,3.2324493E-2,1.1765998E-2,3.2185137E-2,2.7005646E-2,4.9507692E-3,2.1797715E-2,4.9242526E-2,2.679819E-2,3.6200613E-2,4.3939058E-2,4.00694E-2,1.4853388E-2,1.1693716E-2,0E0,0E0,0E0,0E0,0E0,0E0,0E0,0E0,0E0,0E0,0E0,0E0,0E0,0E0,0E0,0E0,0E0,0E0,0E0,0E0,0E0,0E0,0E0,0E0,0E0,0E0,0E0,0E0,0E0,0E0,0E0,0E0,0E0],"parents":[2147483647,0,0,1,1,2,2,3,3,4,4,5,5,6,6,7,7,8,8,9,9,10,10,11,11,12,12,13,13,14,14,17,17,19,19,20,20,21,21,22,22,23,23,24,24,25,25,26,26,27,27,33,33,34,34,35,35,36,36,37,37,38,38,39,39,40,40,41,41,42,42,43,43,44,44,45,45,46,46,47,47],"right_children":[2,4,6,8,10,12,14,16,18,20,22,24,26,28,30,-1,-1,32,-1,34,36,38,40,42,44,46,48,50,-1,-1,-1,-1,-1,52,54,56,58,60,62,64,66,68,70,72,74,76,78,80,-1,-1,-1,-1,-1,-1,-1,-1,-1,-1,-1,-1,-1,-1,-1,-1,-1,-1,-1,-1,-1,-1,-1,-1,-1,-1,-1,-1,-1,-1,-1,-1,-1],"split_conditions":[6.0132134E-1,3.9709455E-1,9.795358E-1,4.622466E-2,4.7500828E-1,7.6889884E-1,1.189967E0,1.4185181E-1,4.596039E-2,2.70975E-3,1.2015223E-1,3.6973247E-1,8.4765446E-1,1.0431826E0,2.016E3,-1.5393068E-2,-1.233997E-2,2.7753243E-1,-4.289204E-3,1.01246275E-1,4.3488804E-1,2.4678357E-2,5.543066E-1,2.018E3,4.12137E-2,4.080583E-2,4.6912637E-1,5.4575026E-1,1.1990708E-2,1.1458503E-2,1.8336818E-2,-9.352895E-3,-5.1267166E-3,9.600073E-6,4.3488804E-1,4.024048E-1,8.762058E-2,2E0,6E0,3.3519703E-1,5.9561193E-1,2.6935276E-2,3.4209383E-1,2.0967014E-2,7.14198E-1,1.3920489E-1,4.5249447E-2,8.890531E-1,8.343729E-3,9.523691E-3,4.524687E-3,-6.682609E-3,6.210059E-4,-6.175823E-3,-3.1546429E-3,-1.7642099E-3,-7.1533057E-3,-3.9941105E-3,-1.2782373E-3,-4.5777704E-3,-2.7127098E-3,8.101931E-4,-3.6332605E-3,-3.1986728E-3,-1.1228988E-3,-1.587339E-4,-3.4258482E-3,7.994735E-4,4.506821E-3,-2.0887086E-3,3.9097937E-4,3.4009663E-3,-9.013547E-5,-2.13263E-3,2.9354214E-3,9.132385E-3,4.632874E-3,-2.1418893E-4,3.4903847E-3,7.671205E-3,5.7845023E-3],"split_indices":[10,10,10,12,10,10,10,10,15,15,12,0,10,10,20,0,0,0,0,12,10,15,10,20,3,3,0,0,0,0,0,0,0,15,10,10,12,18,18,0,10,15,0,15,10,12,3,10,0,0,0,0,0,0,0,0,0,0,0,0,0,0,0,0,0,0,0,0,0,0,0,0,0,0,0,0,0,0,0,0,0],"split_type":[0,0,0,0,0,0,0,0,0,0,0,0,0,0,0,0,0,0,0,0,0,0,0,0,0,0,0,0,0,0,0,0,0,0,0,0,0,0,0,0,0,0,0,0,0,0,0,0,0,0,0,0,0,0,0,0,0,0,0,0,0,0,0,0,0,0,0,0,0,0,0,0,0,0,0,0,0,0,0,0,0],"sum_hessian":[1.228E3,5.83E2,6.45E2,2.68E2,3.15E2,4.41E2,2.04E2,1.44E2,1.24E2,1.27E2,1.88E2,2.33E2,2.08E2,1.41E2,6.3E1,6.7E1,7.7E1,1.2E2,4E0,9.4E1,3.3E1,1.32E2,5.6E1,1.15E2,1.18E2,8.6E1,1.22E2,5.1E1,9E1,1E1,5.3E1,1.16E2,4E0,6.9E1,2.5E1,1.4E1,1.9E1,1.18E2,1.4E1,1.6E1,4E1,6.2E1,5.3E1,1.02E2,1.6E1,6.4E1,2.2E1,8.2E1,4E1,4.8E1,3E0,6.8E1,1E0,8E0,1.7E1,5E0,9E0,6E0,1.3E1,3.8E1,8E1,1E1,4E0,1E1,6E0,3.5E1,5E0,5.2E1,1E1,1.4E1,3.9E1,9.4E1,8E0,1E1,6E0,6E0,5.8E1,3E0,1.9E1,3.5E1,4.7E1],"tree_param":{"num_deleted":"0","num_feature":"21","num_nodes":"81","size_leaf_vector":"1"}},{"base_weights":[-2.254819E-3,-1.4317088E-1,1.2714335E-1,-2.3215671E-1,-7.4453145E-2,6.607502E-2,2.399467E-1,-2.8016582E-1,-1.9106238E-1,-1.0961161E-1,-4.712723E-2,2.7641818E-2,1.099408E-1,1.933257E-1,3.370321E-1,-1.4113803E-2,-5.3646085E-3,-2.0315507E-1,-7.900454E-3,-1.3124622E-1,-9.3494706E-2,-9.096271E-2,-3.350041E-2,1.0644295E-2,4.717639E-2,9.96949E-2,1.3964732E-1,1.679654E-1,2.1014905E-1,1.7258333E-2,9.568997E-3,-6.088169E-3,-1.0448616E-2,-1.3361229E-1,-2.127108E-3,-8.69422E-2,-1.6637106E-1,-1.01242214E-1,-2.2165028E-2,1.0541384E-2,-4.232309E-2,4.7881633E-2,-3.4406648E-3,-3.9136917E-3,4.9173687E-2,2.3834612E-2,1.0275395E-1,1.4958046E-1,4.684075E-2,1.1668353E-1,1.9838153E-1,4.1577322E-3,1.0606775E-2,-6.7396313E-3,-1.68783E-3,-7.075316E-4,-4.5269905E-3,-9.527787E-3,-1.1361927E-3,-5.260007E-3,-9.999882E-4,4.062342E-4,-5.0975825E-3,-1.0394334E-3,2.9807666E-3,-2.7175935E-3,4.2789435E-4,4.1319015E-3,5.154337E-4,-3.049521E-3,1.5383455E-4,2.8898912E-3,5.462417E-4,4.500031E-3,-1.0315957E-3,5.559986E-3,3.9324206E-3,1.8247933E-3,7.716115E-3,-3.1911922E-3,5.9064506E-3,6.2591084E-3,-2.6070327E-3,1.0047744E-2,2.4505295E-3],"categories":[],"categories_nodes":[],"categories_segments":[],"categories_sizes":[],"default_left":[0,0,0,0,0,0,0,0,0,0,0,0,0,0,0,0,0,0,0,0,0,0,0,0,0,0,0,0,0,0,0,0,0,0,0,0,0,0,0,0,0,0,0,0,0,0,0,0,0,0,0,0,0,0,0,0,0,0,0,0,0,0,0,0,0,0,0,0,0,0,0,0,0,0,0,0,0,0,0,0,0,0,0,0,0],"id":2,"left_children":[1,3,5,7,9,11,13,15,17,19,21,23,25,27,29,-1,-1,31,-1,33,35,37,39,41,43,45,47,49,51,-1,-1,-1,-1,53,-1,55,57,59,61,63,65,67,69,-1,71,73,75,77,79,81,83,-1,-1,-1,-1,-1,-1,-1,-1,-1,-1,-1,-1,-1,-1,-1,-1,-1,-1,-1,-1,-1,-1,-1,-1,-1,-1,-1,-1,-1,-1,-1,-1,-1,-1],"loss_changes":[2.224579E1,3.5538197E0,4.365366E0,4.4758797E-1,3.1283832E-1,6.949245E-1,9.4419E-1,1.1665344E-2,2.385807E-2,3.7939668E-2,1.09252244E-1,7.321058E-2,4.48215E-2,2.9978752E-2,1.8063545E-2,0E0,0E0,2.1428585E-2,0E0,6.6987276E-3,2.6602328E-2,2.8872997E-2,5.6788325E-2,6.3103124E-2,2.9656798E-2,3.1663775E-2,3.6320984E-2,7.97987E-2,4.559517E-3,0E0,0E0,0E0,0E0,2.1680593E-3,0E0,1.993066E-2,1.6514197E-2,1.0114998E-2,1.7745323E-2,3.967655E-2,7.452151E-2,4.2242832E-2,3.3194005E-2,0E0,3.301464E-2,2.2452094E-2,1.9960523E-2,1.6889453E-2,5.4873966E-2,4.5266062E-2,5.5264235E-3,0E0,0E0,0E0,0E0,0E0,0E0,0E0,0E0,0E0,0E0,0E0,0E0,0E0,0E0,0E0,0E0,0E0,0E0,0E0,0E0,0E0,0E0,0E0,0E0,0E0,0E0,0E0,0E0,0E0,0E0,0E0,0E0,0E0,0E0],"parents":[2147483647,0,0,1,1,2,2,3,3,4,4,5,5,6,6,7,7,8,8,9,9,10,10,11,11,12,12,13,13,14,14,17,17,19,19,20,20,21,21,22,22,23,23,24,24,25,25,26,26,27,27,28,28,33,33,35,35,36,36,37,37,38,38,39,39,40,40,41,41,42,42,44,44,45,45,46,46,47,47,48,48,49,49,50,50],"right_children":[2,4,6,8,10,12,14,16,18,20,22,24,26,28,30,-1,-1,32,-1,34,36,38,40,42,44,46,48,50,52,-1,-1,-1,-1,54,-1,56,58,60,62,64,66,68,70,-1,72,74,76,78,80,82,84,-1,-1,-1,-1,-1,-1,-1,-1,-1,-1,-1,-1,-1,-1,-1,-1,-1,-1,-1,-1,-1,-1,-1,-1,-1,-1,-1,-1,-1,-1,-1,-1,-1,-1],"split_conditions":[5.993091E-1,3.8326633E-1,9.539685E-1,2.7949972E-2,4.7500828E-1,7.637963E-1,1.1698035E0,2.7E2,3.4582055E-1,4.2578486E-1,8.3E1,6.7586505E-1,1.8185014E-1,1.026641E0,2.6025556E-2,-1.4113803E-2,-5.3646085E-3,1.01E2,-7.900454E-3,4.4638727E-2,3.601545E-2,2.4E1,1.01E2,6.8866853E-3,5.927907E-2,1.9604713E-4,3.41E2,1.5E1,1.5476666E-1,1.7258333E-2,9.568997E-3,-6.088169E-3,-1.0448616E-2,2.79E2,-2.127108E-3,3E0,4.427374E-2,1.3747121E-1,9.600073E-6,9.7E1,1.8844793E-2,1.6E1,4E0,-3.9136917E-3,2.0654144E-2,1.6323344E-1,4.080583E-2,8.109224E-1,1.6E1,2.5786057E-2,3.64E2,4.1577322E-3,1.0606775E-2,-6.7396313E-3,-1.68783E-3,-7.075316E-4,-4.5269905E-3,-9.527787E-3,-1.1361927E-3,-5.260007E-3,-9.999882E-4,4.062342E-4,-5.0975825E-3,-1.0394334E-3,2.9807666E-3,-2.7175935E-3,4.2789435E-4,4.1319015E-3,5.154337E-4,-3.049521E-3,1.5383455E-4,2.8898912E-3,5.462417E-4,4.500031E-3,-1.0315957E-3,5.559986E-3,3.9324206E-3,1.8247933E-3,7.716115E-3,-3.1911922E-3,5.9064506E-3,6.2591084E-3,-2.6070327E-3,1.0047744E-2,2.4505295E-3],"split_indices":[10,10,10,12,10,10,10,19,10,10,19,10,12,10,15,0,0,19,0,15,3,17,19,3,12,3,19,17,12,0,0,0,0,19,0,17,3,12,15,19,15,17,17,0,15,12,3,10,17,15,19,0,0,0,0,0,0,0,0,0,0,0,0,0,0,0,0,0,0,0,0,0,0,0,0,0,0,0,0,0,0,0,0,0,0],"split_type":[0,0,0,0,0,0,0,0,0,0,0,0,0,0,0,0,0,0,0,0,0,0,0,0,0,0,0,0,0,0,0,0,0,0,0,0,0,0,0,0,0,0,0,0,0,0,0,0,0,0,0,0,0,0,0,0,0,0,0,0,0,0,0,0,0,0,0,0,0,0,0,0,0,0,0,0,0,0,0,0,0,0,0,0,0],"sum_hessian":[1.218E3,5.83E2,6.35E2,2.53E2,3.3E2,4.13E2,2.22E2,1.14E2,1.39E2,1.43E2,1.87E2,2.21E2,1.92E2,1.52E2,7E1,1.12E2,2E0,9.8E1,4.1E1,5.8E1,8.5E1,4.3E1,1.44E2,1.19E2,1.02E2,1.46E2,4.6E1,6.5E1,8.7E1,6.5E1,5E0,8E0,9E1,5.6E1,2E0,8E1,5E0,3.7E1,6E0,2.4E1,1.2E2,3.2E1,8.7E1,1E0,1.01E2,6E0,1.4E2,4.1E1,5E0,2.6E1,3.9E1,2E0,8.5E1,5.5E1,1E0,4E0,7.6E1,4E0,1E0,3.5E1,2E0,5E0,1E0,1.5E1,9E0,9.7E1,2.3E1,1.6E1,1.6E1,8E0,7.9E1,8.2E1,1.9E1,2E0,4E0,1.01E2,3.9E1,2E0,3.9E1,2E0,3E0,2.5E1,1E0,3.8E1,1E0],"tree_param":{"num_deleted":"0","num_feature":"21","num_nodes":"85","size_leaf_vector":"1"}},{"base_weights":[1.5541903E-3,-1.2877081E-1,1.3125314E-1,-2.209554E-1,-6.5310806E-2,7.998258E-2,2.4613109E-1,-2.547186E-1,-1.7370419E-1,-8.903715E-2,-2.1163035E-2,4.4804245E-2,1.259626E-1,9.811453E-3,3.1128836E-1,-1.4602537E-2,-1.1611628E-2,-1.22289315E-1,-1.7939278E-1,-1.1145519E-1,-6.936204E-2,2.8900546E-3,-3.7543856E-2,7.6059036E-2,3.3977065E-2,9.998148E-2,1.388796E-1,2.0298402E-1,3.287517E-1,-6.3209683E-3,-1.7149657E-3,-1.3879442E-1,-1.8637224E-1,-1.3972704E-1,-9.82346E-2,-7.840877E-2,-2.097554E-2,-4.7389217E-2,2.167253E-2,-2.732195E-2,-7.009899E-2,2.8333655E-2,8.560991E-2,2.4231346E-2,7.12964E-2,8.3369285E-2,1.3964905E-1,1.4550231E-1,8.902606E-2,1.0766896E-2,1.059588E-3,1.4021726E-2,1.8648168E-2,-1.4587581E-3,-7.176322E-3,-9.371336E-3,-2.6031227E-3,-7.0941686E-3,-1.7681025E-3,-5.5480804E-3,-3.554518E-3,-1.5516174E-3,-4.429603E-3,2.6338378E-3,-1.5487304E-3,-3.5250564E-3,6.467417E-4,2.7681077E-3,7.013249E-5,-3.0836223E-3,-8.825481E-4,-2.4844068E-3,-5.6614787E-3,2.1879303E-3,-3.5335205E-3,6.4232335E-3,3.6173859E-3,8.485996E-3,1.0548676E-3,2.1348235E-3,5.6151603E-3,4.978632E-3,2.74479E-3,1.9749433E-3,7.1608387E-3,6.337614E-3,8.62969E-3,-3.206016E-4,6.4663137E-3],"categories":[],"categories_nodes":[],"categories_segments":[],"categories_sizes":[],"default_left":[0,0,0,0,0,0,0,0,0,0,0,0,0,0,0,0,0,0,0,0,0,0,0,0,0,0,0,0,0,0,0,0,0,0,0,0,0,0,0,0,0,0,0,0,0,0,0,0,0,0,0,0,0,0,0,0,0,0,0,0,0,0,0,0,0,0,0,0,0,0,0,0,0,0,0,0,0,0,0,0,0,0,0,0,0,0,0,0,0],"id":3,"left_children":[1,3,5,7,9,11,13,15,17,19,21,23,25,-1,27,-1,-1,29,31,33,35,37,39,41,43,45,47,49,51,-1,-1,53,55,57,59,61,63,65,67,69,71,73,75,77,79,81,83,85,87,-1,-1,-1,-1,-1,-1,-1,-1,-1,-1,-1,-1,-1,-1,-1,-1,-1,-1,-1,-1,-1,-1,-1,-1,-1,-1,-1,-1,-1,-1,-1,-1,-1,-1,-1,-1,-1,-1,-1,-1],"loss_changes":[2.114567E1,3.635991E0,3.673254E0,3.6097336E-1,3.867253E-1,6.979692E-1,5.664511E-1,5.4736137E-2,9.942293E-3,9.856892E-2,5.1723715E-2,8.133924E-2,4.920721E-2,0E0,8.836126E-2,0E0,0E0,7.5154006E-4,1.3344288E-3,2.7762413E-2,5.569929E-2,5.2022975E-2,2.404125E-2,2.6290953E-2,6.592128E-2,3.1849265E-2,2.7656794E-2,2.6878357E-2,4.2804718E-2,0E0,0E0,5.1495135E-3,1.430273E-3,2.4092793E-3,1.9403458E-2,5.032003E-2,1.7833639E-2,2.182499E-2,2.723773E-2,1.9175816E-2,1.0219812E-2,2.1418035E-2,2.0259976E-2,6.4357445E-2,3.977114E-2,1.7140806E-2,7.7468157E-4,3.247547E-2,6.6214204E-2,0E0,0E0,0E0,0E0,0E0,0E0,0E0,0E0,0E0,0E0,0E0,0E0,0E0,0E0,0E0,0E0,0E0,0E0,0E0,0E0,0E0,0E0,0E0,0E0,0E0,0E0,0E0,0E0,0E0,0E0,0E0,0E0,0E0,0E0,0E0,0E0,0E0,0E0,0E0,0E0],"parents":[2147483647,0,0,1,1,2,2,3,3,4,4,5,5,6,6,7,7,8,8,9,9,10,10,11,11,12,12,14,14,17,17,18,18,19,19,20,20,21,21,22,22,23,23,24,24,25,25,26,26,27,27,28,28,31,31,32,32,33,33,34,34,35,35,36,36,37,37,38,38,39,39,40,40,41,41,42,42,43,43,44,44,45,45,46,46,47,47,48,48],"right_children":[2,4,6,8,10,12,14,16,18,20,22,24,26,-1,28,-1,-1,30,32,34,36,38,40,42,44,46,48,50,52,-1,-1,54,56,58,60,62,64,66,68,70,72,74,76,78,80,82,84,86,88,-1,-1,-1,-1,-1,-1,-1,-1,-1,-1,-1,-1,-1,-1,-1,-1,-1,-1,-1,-1,-1,-1,-1,-1,-1,-1,-1,-1,-1,-1,-1,-1,-1,-1,-1,-1,-1,-1,-1,-1],"split_conditions":[6.2408566E-1,3.8326633E-1,1.0020868E0,2.6148033E-1,5.4596496E-1,8.0628455E-1,1.1698035E0,3.1649806E-3,1.04E2,4.5828137E-1,1.4E1,2.016E3,1.6242978E-1,9.811453E-3,2.016E3,-1.4602537E-2,-1.1611628E-2,4.5428425E-4,6E0,1.3E2,2.4E1,9.6E1,2.019E3,3.6973247E-1,7.6889884E-1,9.229194E-1,3.46E2,2.4E1,5.8334976E-1,-6.3209683E-3,-1.7149657E-3,1.961114E-1,2.74E2,1.1288393E-1,4.3488804E-1,6E0,2.5E1,9E0,6E0,8.3E1,1.2E2,1.4784318E-1,1.2E1,3.2583854E-1,2.81E2,1.5353875E-1,2E0,4.724672E-1,1.6E1,1.0766896E-2,1.059588E-3,1.4021726E-2,1.8648168E-2,-1.4587581E-3,-7.176322E-3,-9.371336E-3,-2.6031227E-3,-7.0941686E-3,-1.7681025E-3,-5.5480804E-3,-3.554518E-3,-1.5516174E-3,-4.429603E-3,2.6338378E-3,-1.5487304E-3,-3.5250564E-3,6.467417E-4,2.7681077E-3,7.013249E-5,-3.0836223E-3,-8.825481E-4,-2.4844068E-3,-5.6614787E-3,2.1879303E-3,-3.5335205E-3,6.4232335E-3,3.6173859E-3,8.485996E-3,1.0548676E-3,2.1348235E-3,5.6151603E-3,4.978632E-3,2.74479E-3,1.9749433E-3,7.1608387E-3,6.337614E-3,8.62969E-3,-3.206016E-4,6.4663137E-3],"split_indices":[10,10,10,10,10,10,10,12,19,10,17,20,12,0,20,0,0,14,17,19,17,19,20,0,10,10,19,17,0,0,0,0,19,12,10,17,17,17,17,19,19,12,17,0,19,12,17,0,17,0,0,0,0,0,0,0,0,0,0,0,0,0,0,0,0,0,0,0,0,0,0,0,0,0,0,0,0,0,0,0,0,0,0,0,0,0,0,0,0],"split_type":[0,0,0,0,0,0,0,0,0,0,0,0,0,0,0,0,0,0,0,0,0,0,0,0,0,0,0,0,0,0,0,0,0,0,0,0,0,0,0,0,0,0,0,0,0,0,0,0,0,0,0,0,0,0,0,0,0,0,0,0,0,0,0,0,0,0,0,0,0,0,0,0,0,0,0,0,0,0,0,0,0,0,0,0,0,0,0,0,0],"sum_hessian":[1.249E3,6.23E2,6.26E2,2.53E2,3.7E2,4.34E2,1.92E2,1.45E2,1.08E2,2.4E2,1.3E2,2.47E2,1.87E2,1.11E2,8.1E1,5E1,9.5E1,1.3E1,9.5E1,1.1E2,1.3E2,5.3E1,7.7E1,6.2E1,1.85E2,6.5E1,1.22E2,1.3E1,6.8E1,1.2E1,1E0,1.7E1,7.8E1,3.2E1,7.8E1,1.09E2,2.1E1,1.4E1,3.9E1,6E1,1.7E1,1.1E1,5.1E1,1.48E2,3.7E1,4.8E1,1.7E1,1.06E2,1.6E1,1.2E1,1E0,3.6E1,3.2E1,1E0,1.6E1,7.7E1,1E0,3.1E1,1E0,5.1E1,2.7E1,2E1,8.9E1,2E0,1.9E1,1E1,4E0,1.4E1,2.5E1,1.2E1,4.8E1,1.3E1,4E0,1E1,1E0,1E1,4.1E1,2E0,1.46E2,2.3E1,1.4E1,2.9E1,1.9E1,1E0,1.6E1,6.6E1,4E1,5E0,1.1E1],"tree_param":{"num_deleted":"0","num_feature":"21","num_nodes":"89","size_leaf_vector":"1"}},{"base_weights":[-1.3383088E-3,-1.2970605E-1,1.0907927E-1,-2.0598273E-1,-6.548197E-2,4.1114222E-2,1.8820101E-1,-2.4726923E-1,-1.6739209E-1,-9.28014E-2,-4.270568E-2,2.4503227E-2,8.330367E-2,1.5246147E-1,2.782705E-1,-1.3798902E-2,-1.1171593E-2,-1.7885786E-1,-1.4138693E-1,-8.7719984E-2,-9.625664E-3,-2.992087E-2,-6.547934E-2,1.1753782E-2,3.8288884E-2,9.238226E-2,4.6504065E-2,1.3684125E-1,1.8442479E-1,2.0357849E-1,2.9243472E-1,-2.256424E-3,-1.7983149E-1,-7.2330744E-3,-3.501004E-3,-1.086998E-1,-7.385328E-2,-8.045549E-3,-5.165252E-2,4.1504106E-3,-6.7910016E-2,-1.6724952E-2,2.2173375E-2,4.565566E-2,-3.427232E-2,1.4661819E-1,8.431969E-2,-4.279042E-3,6.39916E-2,1.4094853E-1,9.569184E-2,7.14688E-3,1.0214842E-2,1.0441426E-2,2.9894493E-3,1.0534378E-2,3.1089872E-1,-9.206732E-3,-6.008289E-3,-3.2297752E-3,-6.241705E-3,-2.6487408E-3,-4.2729806E-3,-2.8846085E-3,7.2482845E-4,-3.8255693E-3,-3.2888423E-4,3.8855523E-4,-7.7274446E-5,-2.9416995E-3,-5.324959E-3,4.2239684E-3,-1.2460876E-3,2.340233E-3,-2.7428067E-4,7.9501624E-4,3.6309927E-3,-3.8195606E-3,3.3628175E-4,9.64219E-3,2.0312597E-3,2.8144768E-3,5.266828E-3,4.037953E-3,1.0657511E-3,6.050316E-3,7.5509357E-3,-2.0275428E-4,6.3347565E-3,1.3229794E-2,1.7455835E-2],"categories":[],"categories_nodes":[],"categories_segments":[],"categories_sizes":[],"default_left":[0,0,0,0,0,0,0,0,0,0,0,0,0,0,0,0,0,0,0,0,0,0,0,0,0,0,0,0,0,0,0,0,0,0,0,0,0,0,0,0,0,0,0,0,0,0,0,0,0,0,0,0,0,0,0,0,0,0,0,0,0,0,0,0,0,0,0,0,0,0,0,0,0,0,0,0,0,0,0,0,0,0,0,0,0,0,0,0,0,0,0],"id":4,"left_children":[1,3,5,7,9,11,13,15,17,19,21,23,25,27,29,-1,-1,31,33,35,-1,37,39,41,43,45,47,49,51,53,55,-1,57,-1,-1,59,61,63,65,67,69,71,73,75,77,79,81,-1,83,85,87,-1,-1,-1,-1,-1,89,-1,-1,-1,-1,-1,-1,-1,-1,-1,-1,-1,-1,-1,-1,-1,-1,-1,-1,-1,-1,-1,-1,-1,-1,-1,-1,-1,-1,-1,-1,-1,-1,-1,-1],"loss_changes":[1.7533281E1,2.7886257E0,3.5683079E0,3.7445354E-1,1.9017434E-1,2.4954909E-1,9.458208E-1,2.3195744E-2,1.5858889E-2,5.4554224E-2,4.8119783E-2,4.5071676E-2,2.944678E-2,8.560228E-2,3.145027E-2,0E0,0E0,3.8633347E-3,8.544922E-4,3.1537414E-2,0E0,5.2827753E-2,1.0605961E-2,4.0727057E-2,6.784794E-2,2.2619724E-2,5.629292E-2,1.2371302E-2,2.8508663E-2,3.476739E-4,4.0154457E-2,0E0,1.2373924E-3,0E0,0E0,2.8939009E-2,1.6070217E-2,6.462731E-2,6.224525E-2,7.387948E-5,1.4398187E-2,3.279879E-2,6.8384394E-2,8.9508444E-2,2.1235239E-2,3.626202E-2,3.6486328E-2,0E0,1.259017E-2,9.238243E-3,5.3085983E-2,0E0,0E0,0E0,0E0,0E0,4.9529076E-3,0E0,0E0,0E0,0E0,0E0,0E0,0E0,0E0,0E0,0E0,0E0,0E0,0E0,0E0,0E0,0E0,0E0,0E0,0E0,0E0,0E0,0E0,0E0,0E0,0E0,0E0,0E0,0E0,0E0,0E0,0E0,0E0,0E0,0E0],"parents":[2147483647,0,0,1,1,2,2,3,3,4,4,5,5,6,6,7,7,8,8,9,9,10,10,11,11,12,12,13,13,14,14,17,17,18,18,19,19,21,21,22,22,23,23,24,24,25,25,26,26,27,27,28,28,29,29,30,30,32,32,35,35,36,36,37,37,38,38,39,39,40,40,41,41,42,42,43,43,44,44,45,45,46,46,48,48,49,49,50,50,56,56],"right_children":[2,4,6,8,10,12,14,16,18,20,22,24,26,28,30,-1,-1,32,34,36,-1,38,40,42,44,46,48,50,52,54,56,-1,58,-1,-1,60,62,64,66,68,70,72,74,76,78,80,82,-1,84,86,88,-1,-1,-1,-1,-1,90,-1,-1,-1,-1,-1,-1,-1,-1,-1,-1,-1,-1,-1,-1,-1,-1,-1,-1,-1,-1,-1,-1,-1,-1,-1,-1,-1,-1,-1,-1,-1,-1,-1,-1],"split_conditions":[5.851371E-1,3.8326633E-1,8.563372E-1,2.2615428E-1,4.7500828E-1,7.6889884E-1,1.1475028E0,3.1649806E-3,3.4582055E-1,3.601545E-2,2.018E3,5E0,4.1704442E-2,1.026641E0,2.0861109E-1,-1.3798902E-2,-1.1171593E-2,3E0,5.1083464E-2,4.2578486E-1,-9.625664E-3,1.64E2,2E0,3.494786E-1,4.12137E-2,1.3920489E-1,4.224729E-2,3.46E2,5E0,1.2670157E0,2.016E3,-2.256424E-3,2.4378768E-1,-7.2330744E-3,-3.501004E-3,2.5758764E-1,2.016E3,8.1E1,1.3674341E-2,3.2184088E-1,2.0803923E-2,3.2583854E-1,1.3613069E-1,3.639335E-1,3.2E2,3.601545E-2,8.0628455E-1,-4.279042E-3,1.4748307E-1,1.7388059E-1,3.5E2,7.14688E-3,1.0214842E-2,1.0441426E-2,2.9894493E-3,1.0534378E-2,1.2670157E0,-9.206732E-3,-6.008289E-3,-3.2297752E-3,-6.241705E-3,-2.6487408E-3,-4.2729806E-3,-2.8846085E-3,7.2482845E-4,-3.8255693E-3,-3.2888423E-4,3.8855523E-4,-7.7274446E-5,-2.9416995E-3,-5.324959E-3,4.2239684E-3,-1.2460876E-3,2.340233E-3,-2.7428067E-4,7.9501624E-4,3.6309927E-3,-3.8195606E-3,3.3628175E-4,9.64219E-3,2.0312597E-3,2.8144768E-3,5.266828E-3,4.037953E-3,1.0657511E-3,6.050316E-3,7.5509357E-3,-2.0275428E-4,6.3347565E-3,1.3229794E-2,1.7455835E-2],"split_indices":[10,10,10,10,10,10,10,12,10,3,20,16,3,10,12,0,0,16,15,10,0,19,16,0,3,12,3,19,16,10,20,0,0,0,0,0,20,19,15,0,3,0,12,0,19,3,10,0,12,12,19,0,0,0,0,0,10,0,0,0,0,0,0,0,0,0,0,0,0,0,0,0,0,0,0,0,0,0,0,0,0,0,0,0,0,0,0,0,0,0,0],"split_type":[0,0,0,0,0,0,0,0,0,0,0,0,0,0,0,0,0,0,0,0,0,0,0,0,0,0,0,0,0,0,0,0,0,0,0,0,0,0,0,0,0,0,0,0,0,0,0,0,0,0,0,0,0,0,0,0,0,0,0,0,0,0,0,0,0,0,0,0,0,0,0,0,0,0,0,0,0,0,0,0,0,0,0,0,0,0,0,0,0,0,0],"sum_hessian":[1.235E3,5.71E2,6.64E2,2.6E2,3.11E2,3.58E2,3.06E2,1.23E2,1.37E2,1.4E2,1.71E2,2.58E2,1E2,2.21E2,8.5E1,5.1E1,7.2E1,9.1E1,4.6E1,1.35E2,5E0,1.11E2,6E1,1.35E2,1.23E2,7.9E1,2.1E1,1.52E2,6.9E1,1.6E1,6.9E1,1E0,9E1,4.3E1,3E0,5.1E1,8.4E1,5.6E1,5.5E1,2E0,5.8E1,3.6E1,9.9E1,1.12E2,1.1E1,8E0,7.1E1,2E0,1.9E1,1.36E2,1.6E1,2.5E1,4.4E1,1.5E1,1E0,1.5E1,5.4E1,8.2E1,8E0,1.5E1,3.6E1,3.2E1,5.2E1,1.7E1,3.9E1,3.5E1,2E1,1E0,1E0,4.9E1,9E0,2E0,3.4E1,5.2E1,4.7E1,5.4E1,5.8E1,5E0,6E0,5E0,3E0,3.2E1,3.9E1,1.3E1,6E0,5E1,8.6E1,4E0,1.2E1,2.8E1,2.6E1],"tree_param":{"num_deleted":"0","num_feature":"21","num_nodes":"91","size_leaf_vector":"1"}},{"base_weights":[-1.8733478E-3,-1.2616873E-1,1.03889495E-1,-1.9156836E-1,-6.5317035E-2,4.8102763E-2,1.9993553E-1,-2.2808407E-1,-1.4949395E-1,-7.6871075E-2,-2.7180163E-2,2.456276E-2,8.595914E-2,1.6052483E-1,2.7920237E-1,-1.33069595E-2,-1.0266601E-2,-1.5361029E-1,-8.987534E-2,-9.344496E-2,-6.006711E-2,-4.427798E-3,-5.1106155E-2,5.245505E-3,3.985281E-2,7.197772E-2,1.0605253E-1,1.5479274E-1,1.45701645E-2,1.2924514E-2,1.8924115E-2,-1.673364E-1,-1.3878798E-1,-1.1921205E-3,-4.70472E-3,-1.07842945E-1,-4.702876E-2,-6.164776E-2,2.1073738E-2,9.8460745E-3,-5.1515397E-2,-3.3765303E-3,-6.512321E-2,2.8217996E-3,7.3416606E-3,6.398621E-2,3.138447E-2,7.722723E-2,3.9263025E-2,1.3233344E-1,7.3993646E-2,6.291466E-2,1.596901E-1,-2.2000135E-3,-8.435213E-3,-7.0878114E-3,-2.9041576E-3,-2.241945E-3,-5.477965E-3,-7.0711126E-4,-4.062709E-3,-2.7844475E-3,-4.9028913E-3,1.3674453E-3,2.1308512E-4,9.7499735E-4,-1.6009704E-3,-4.281375E-3,6.265808E-4,-1.6248211E-3,2.0573721E-3,-5.0717345E-3,-2.0666104E-3,-1.165569E-3,6.560355E-4,2.41957E-3,6.954667E-3,3.0898997E-3,9.82354E-4,3.296759E-3,5.8111497E-3,-9.887185E-4,2.4554697E-3,6.735523E-3,1.2878776E-3,6.081288E-6,4.3834574E-3,-2.8515556E-3,4.128938E-3,7.707201E-3,1.1657444E-2],"categories":[],"categories_nodes":[],"categories_segments":[],"categories_sizes":[],"default_left":[0,0,0,0,0,0,0,0,0,0,0,0,0,0,0,0,0,0,0,0,0,0,0,0,0,0,0,0,0,0,0,0,0,0,0,0,0,0,0,0,0,0,0,0,0,0,0,0,0,0,0,0,0,0,0,0,0,0,0,0,0,0,0,0,0,0,0,0,0,0,0,0,0,0,0,0,0,0,0,0,0,0,0,0,0,0,0,0,0,0,0],"id":5,"left_children":[1,3,5,7,9,11,13,15,17,19,21,23,25,27,29,-1,-1,31,33,35,37,39,41,43,45,47,49,51,-1,-1,-1,53,55,-1,-1,57,59,61,63,65,67,69,71,73,-1,75,77,79,81,83,85,87,89,-1,-1,-1,-1,-1,-1,-1,-1,-1,-1,-1,-1,-1,-1,-1,-1,-1,-1,-1,-1,-1,-1,-1,-1,-1,-1,-1,-1,-1,-1,-1,-1,-1,-1,-1,-1,-1,-1],"loss_changes":[1.6642586E1,2.3036594E0,3.6553187E0,3.960886E-1,1.3142312E-1,3.8464296E-1,7.3929596E-1,7.349634E-2,1.8834114E-2,5.900061E-2,3.8968563E-2,7.924329E-2,3.9001703E-2,8.242798E-2,7.078266E-2,0E0,0E0,1.8002987E-3,8.211285E-4,7.178283E-2,1.6433269E-2,2.6047874E-2,2.3196116E-2,4.0765688E-2,2.8647289E-2,1.4313161E-2,4.5815527E-2,6.419659E-2,0E0,0E0,0E0,2.5305748E-3,7.337332E-3,0E0,0E0,4.4953823E-3,3.1491987E-2,1.9706726E-2,1.9994215E-4,1.2749297E-2,2.0736057E-2,1.3005943E-2,1.9132413E-2,3.233391E-2,0E0,3.777778E-2,3.912408E-2,3.0206203E-2,1.0271966E-2,5.396843E-3,3.2316923E-2,2.8295815E-2,2.7617216E-2,0E0,0E0,0E0,0E0,0E0,0E0,0E0,0E0,0E0,0E0,0E0,0E0,0E0,0E0,0E0,0E0,0E0,0E0,0E0,0E0,0E0,0E0,0E0,0E0,0E0,0E0,0E0,0E0,0E0,0E0,0E0,0E0,0E0,0E0,0E0,0E0,0E0,0E0],"parents":[2147483647,0,0,1,1,2,2,3,3,4,4,5,5,6,6,7,7,8,8,9,9,10,10,11,11,12,12,13,13,14,14,17,17,18,18,19,19,20,20,21,21,22,22,23,23,24,24,25,25,26,26,27,27,31,31,32,32,35,35,36,36,37,37,38,38,39,39,40,40,41,41,42,42,43,43,45,45,46,46,47,47,48,48,49,49,50,50,51,51,52,52],"right_children":[2,4,6,8,10,12,14,16,18,20,22,24,26,28,30,-1,-1,32,34,36,38,40,42,44,46,48,50,52,-1,-1,-1,54,56,-1,-1,58,60,62,64,66,68,70,72,74,-1,76,78,80,82,84,86,88,90,-1,-1,-1,-1,-1,-1,-1,-1,-1,-1,-1,-1,-1,-1,-1,-1,-1,-1,-1,-1,-1,-1,-1,-1,-1,-1,-1,-1,-1,-1,-1,-1,-1,-1,-1,-1,-1,-1],"split_conditions":[5.851371E-1,3.9709455E-1,9.229194E-1,4.3727726E-2,5.4596496E-1,7.6889884E-1,1.1475028E0,3.1649806E-3,3.843672E-2,1.0039982E-1,2.017E3,6.584492E-1,8.563372E-1,5.5362977E-2,6.3724184E-1,-1.33069595E-2,-1.0266601E-2,2.3424944E-1,1.961114E-1,2.0982586E-3,3.494786E-1,6E0,3.1391138E-1,5.0732583E-2,2.016E3,6E0,8.890531E-1,4.525536E-1,1.45701645E-2,1.2924514E-2,1.8924115E-2,3E0,2.0185363E-2,-1.1921205E-3,-4.70472E-3,2E0,2.018E3,3.226813E-1,5.31338E-1,3.5386068E-1,7E0,2E0,3.2025295E-1,4E0,7.3416606E-3,1.6642709E-1,1.2746923E-1,5E0,4.0160692E-1,1.2E1,8.92547E-1,2E0,2.3033825E-1,-2.2000135E-3,-8.435213E-3,-7.0878114E-3,-2.9041576E-3,-2.241945E-3,-5.477965E-3,-7.0711126E-4,-4.062709E-3,-2.7844475E-3,-4.9028913E-3,1.3674453E-3,2.1308512E-4,9.7499735E-4,-1.6009704E-3,-4.281375E-3,6.265808E-4,-1.6248211E-3,2.0573721E-3,-5.0717345E-3,-2.0666104E-3,-1.165569E-3,6.560355E-4,2.41957E-3,6.954667E-3,3.0898997E-3,9.82354E-4,3.296759E-3,5.8111497E-3,-9.887185E-4,2.4554697E-3,6.735523E-3,1.2878776E-3,6.081288E-6,4.3834574E-3,-2.8515556E-3,4.128938E-3,7.707201E-3,1.1657444E-2],"split_indices":[10,10,10,12,10,10,10,12,15,12,20,10,10,15,0,0,0,0,0,15,0,18,0,15,20,18,10,0,0,0,0,16,15,0,0,16,20,0,10,0,16,18,0,16,0,12,12,18,0,16,10,18,12,0,0,0,0,0,0,0,0,0,0,0,0,0,0,0,0,0,0,0,0,0,0,0,0,0,0,0,0,0,0,0,0,0,0,0,0,0,0],"split_type":[0,0,0,0,0,0,0,0,0,0,0,0,0,0,0,0,0,0,0,0,0,0,0,0,0,0,0,0,0,0,0,0,0,0,0,0,0,0,0,0,0,0,0,0,0,0,0,0,0,0,0,0,0,0,0,0,0,0,0,0,0,0,0,0,0,0,0,0,0,0,0,0,0,0,0,0,0,0,0,0,0,0,0,0,0,0,0,0,0,0,0],"sum_hessian":[1.264E3,5.81E2,6.83E2,2.79E2,3.02E2,4.33E2,2.5E2,1.47E2,1.32E2,2.31E2,7.1E1,2.68E2,1.65E2,1.69E2,8.1E1,5.1E1,9.6E1,1.22E2,1E1,1.14E2,1.17E2,3.7E1,3.4E1,1.19E2,1.49E2,1E2,6.5E1,1.64E2,5E0,7E1,1.1E1,5.8E1,6.4E1,1E0,9E0,8.6E1,2.8E1,1.15E2,2E0,2.9E1,8E0,8E0,2.6E1,1.18E2,1E0,3.7E1,1.12E2,8.5E1,1.5E1,3.4E1,3.1E1,9E0,1.55E2,1E0,5.7E1,6.1E1,3E0,3E0,8.3E1,1.5E1,1.3E1,1.01E2,1.4E1,1E0,1E0,2.4E1,5E0,5E0,3E0,5E0,3E0,9E0,1.7E1,3.3E1,8.5E1,3.2E1,5E0,3E1,8.2E1,6.8E1,1.7E1,2E0,1.3E1,3.3E1,1E0,5E0,2.6E1,1E0,8E0,1.47E2,8E0],"tree_param":{"num_deleted":"0","num_feature":"21","num_nodes":"91","size_leaf_vector":"1"}},{"base_weights":[-1.5838181E-3,-1.08901784E-1,1.0926115E-1,-1.9759072E-1,-6.4298026E-2,6.740437E-2,2.0191959E-1,-1.1758908E-2,-1.6744034E-1,-9.8500915E-2,-3.534059E-2,2.9189492E-2,9.5277034E-2,1.6868804E-1,2.59913E-1,-1.7370544E-1,-1.1200419E-1,-1.1319636E-1,-6.1710022E-2,-4.6913654E-2,1.2496617E-3,6.8376632E-3,3.9048467E-2,9.134972E-2,1.5354836E-2,1.4609419E-1,1.8723403E-1,1.62664E-1,2.8483745E-1,-1.752333E-1,-3.141895E-3,-1.9333244E-3,-6.3558207E-3,-1.1690149E-1,7.25829E-3,-1.10216595E-1,-4.176204E-2,-8.213351E-2,-3.543886E-2,-5.2456954E-3,5.8874767E-3,5.6017157E-2,-6.428816E-3,-3.8372406E-3,4.782941E-2,6.594546E-2,1.0902458E-1,1.5142986E-1,9.2483595E-2,1.649871E-1,1.1396397E-2,8.6158635E-3,4.466258E-4,1.4372031E-2,3.801886E-3,-9.623741E-3,-7.638149E-3,-5.596708E-3,-8.995162E-3,-8.5312326E-4,1.4579807E-3,5.103514E-4,-5.946265E-3,-4.48633E-3,-1.3918623E-3,-4.3640565E-3,6.9396594E-4,-6.031277E-4,-3.2276926E-3,-5.521431E-4,4.849354E-3,4.158959E-3,-2.6597644E-3,1.6365983E-3,-7.8903296E-4,-8.4125437E-4,4.2013745E-3,5.1037516E-3,1.8339964E-3,5.093181E-3,2.7909603E-3,4.516798E-3,7.262528E-3,8.070706E-3,5.6043486E-3,5.4569063E-3,-6.0245395E-4,3.8418963E-3,8.828916E-3],"categories":[],"categories_nodes":[],"categories_segments":[],"categories_sizes":[],"default_left":[0,0,0,0,0,0,0,0,0,0,0,0,0,0,0,0,0,0,0,0,0,0,0,0,0,0,0,0,0,0,0,0,0,0,0,0,0,0,0,0,0,0,0,0,0,0,0,0,0,0,0,0,0,0,0,0,0,0,0,0,0,0,0,0,0,0,0,0,0,0,0,0,0,0,0,0,0,0,0,0,0,0,0,0,0,0,0,0,0],"id":6,"left_children":[1,3,5,7,9,11,13,-1,15,17,19,21,23,25,27,29,31,33,35,37,39,41,43,45,-1,47,49,51,53,55,-1,-1,-1,57,59,61,63,65,67,69,-1,71,73,75,77,79,81,83,85,87,-1,-1,-1,-1,-1,-1,-1,-1,-1,-1,-1,-1,-1,-1,-1,-1,-1,-1,-1,-1,-1,-1,-1,-1,-1,-1,-1,-1,-1,-1,-1,-1,-1,-1,-1,-1,-1,-1,-1],"loss_changes":[1.4726826E1,2.475532E0,2.3483257E0,1.9860935E-1,4.1249883E-1,4.4564736E-1,3.2039833E-1,0E0,2.2221804E-2,9.682095E-2,9.7031265E-2,3.9178535E-2,1.740942E-1,2.4186373E-2,1.1606741E-1,6.943941E-3,1.1709288E-2,6.1545372E-2,5.055079E-2,6.7409724E-2,4.2993344E-2,3.689669E-2,4.6879068E-2,1.00574255E-1,0E0,3.1582117E-3,2.0334959E-2,2.2204965E-2,6.4077377E-3,1.0888815E-2,0E0,0E0,0E0,2.1172047E-2,3.1608187E-3,1.7993629E-2,2.555392E-2,2.1969378E-2,8.9741245E-2,3.3074673E-2,0E0,4.00219E-2,1.699668E-2,2.6519593E-2,5.8551386E-2,3.104946E-2,8.166063E-2,2.7265549E-3,1.5242562E-2,3.241098E-2,0E0,0E0,0E0,0E0,0E0,0E0,0E0,0E0,0E0,0E0,0E0,0E0,0E0,0E0,0E0,0E0,0E0,0E0,0E0,0E0,0E0,0E0,0E0,0E0,0E0,0E0,0E0,0E0,0E0,0E0,0E0,0E0,0E0,0E0,0E0,0E0,0E0,0E0,0E0],"parents":[2147483647,0,0,1,1,2,2,3,3,4,4,5,5,6,6,8,8,9,9,10,10,11,11,12,12,13,13,14,14,15,15,16,16,17,17,18,18,19,19,20,20,21,21,22,22,23,23,25,25,26,26,27,27,28,28,29,29,33,33,34,34,35,35,36,36,37,37,38,38,39,39,41,41,42,42,43,43,44,44,45,45,46,46,47,47,48,48,49,49],"right_children":[2,4,6,8,10,12,14,-1,16,18,20,22,24,26,28,30,32,34,36,38,40,42,44,46,-1,48,50,52,54,56,-1,-1,-1,58,60,62,64,66,68,70,-1,72,74,76,78,80,82,84,86,88,-1,-1,-1,-1,-1,-1,-1,-1,-1,-1,-1,-1,-1,-1,-1,-1,-1,-1,-1,-1,-1,-1,-1,-1,-1,-1,-1,-1,-1,-1,-1,-1,-1,-1,-1,-1,-1,-1,-1],"split_conditions":[3.494786E-1,2.3424944E-1,1.8822698E-1,2.1379782E-2,1.0039982E-1,4.005989E-1,5.6084085E-1,-1.1758908E-2,4.266715E-2,9.600073E-6,1.8844793E-2,3.622849E-1,6.0345285E-2,5.177892E-1,2.016E3,2.79E2,9E0,4.427374E-2,2.4872528E-1,8.3E1,1.4123427E-2,3.5143384E-1,1.2015223E-1,1.593822E-1,1.5354836E-2,5.073752E-1,7.195674E-3,3.47E2,5.446925E-2,4.8757017E-2,-3.141895E-3,-1.9333244E-3,-6.3558207E-3,3.644199E-2,3.026121E-1,5E0,3.3595478E-3,2.7E1,1.68E2,5.5123426E-2,5.8874767E-3,2.2E1,5.4918984E-3,9.600073E-6,1.3081867E-1,2E1,2.9088993E-2,2.5E1,3.7119195E-2,7.0520667E-3,1.1396397E-2,8.6158635E-3,4.466258E-4,1.4372031E-2,3.801886E-3,-9.623741E-3,-7.638149E-3,-5.596708E-3,-8.995162E-3,-8.5312326E-4,1.4579807E-3,5.103514E-4,-5.946265E-3,-4.48633E-3,-1.3918623E-3,-4.3640565E-3,6.9396594E-4,-6.031277E-4,-3.2276926E-3,-5.521431E-4,4.849354E-3,4.158959E-3,-2.6597644E-3,1.6365983E-3,-7.8903296E-4,-8.4125437E-4,4.2013745E-3,5.1037516E-3,1.8339964E-3,5.093181E-3,2.7909603E-3,4.516798E-3,7.262528E-3,8.070706E-3,5.6043486E-3,5.4569063E-3,-6.0245395E-4,3.8418963E-3,8.828916E-3],"split_indices":[0,0,12,12,12,0,0,0,15,15,15,0,15,0,20,19,16,3,0,19,3,0,12,12,0,0,15,19,3,12,0,0,0,3,0,17,3,17,19,15,0,17,3,15,12,19,3,17,3,3,0,0,0,0,0,0,0,0,0,0,0,0,0,0,0,0,0,0,0,0,0,0,0,0,0,0,0,0,0,0,0,0,0,0,0,0,0,0,0],"split_type":[0,0,0,0,0,0,0,0,0,0,0,0,0,0,0,0,0,0,0,0,0,0,0,0,0,0,0,0,0,0,0,0,0,0,0,0,0,0,0,0,0,0,0,0,0,0,0,0,0,0,0,0,0,0,0,0,0,0,0,0,0,0,0,0,0,0,0,0,0,0,0,0,0,0,0,0,0,0,0,0,0,0,0,0,0,0,0,0,0],"sum_hessian":[1.236E3,6.28E2,6.08E2,2.09E2,4.19E2,4.2E2,1.88E2,9E1,1.19E2,1.91E2,2.28E2,1.78E2,2.42E2,1.22E2,6.6E1,1.05E2,1.4E1,1.35E2,5.6E1,1.73E2,5.5E1,5.5E1,1.23E2,2.39E2,3E0,5.9E1,6.3E1,1.5E1,5.1E1,1.03E2,2E0,3E0,1.1E1,1.31E2,4E0,1.5E1,4.1E1,4.1E1,1.32E2,5.3E1,2E0,1.1E1,4.4E1,2.1E1,1.02E2,1E2,1.39E2,5.2E1,7E0,4.4E1,1.9E1,1.4E1,1E0,5E1,1E0,5.4E1,4.9E1,1.24E2,7E0,2E0,2E0,1E0,1.4E1,8E0,3.3E1,3.9E1,2E0,7.4E1,5.8E1,5.1E1,2E0,9E0,2E0,8E0,3.6E1,1.9E1,2E0,1.6E1,8.6E1,2E1,8E1,9.4E1,4.5E1,3.9E1,1.3E1,6E0,1E0,6E0,3.8E1],"tree_param":{"num_deleted":"0","num_feature":"21","num_nodes":"89","size_leaf_vector":"1"}},{"base_weights":[-1.2269645E-4,-1.0905728E-1,9.944136E-2,-1.8896563E-1,-6.2684044E-2,5.7067223E-2,1.900551E-1,-1.1598205E-2,-1.6335247E-1,-1.0393737E-1,-4.514451E-2,3.1490628E-2,9.945526E-2,1.5368025E-1,2.4148877E-1,-1.7941053E-1,-1.4371143E-1,-1.0817786E-1,-7.3877126E-2,-6.303035E-2,-2.6921771E-2,9.02587E-3,4.3226097E-2,7.473786E-2,1.10605724E-1,1.2500046E-1,1.6789162E-1,2.6751563E-1,1.8836172E-1,-1.8287034E-1,-3.7005604E-3,-1.00586325E-1,-7.4706273E-3,-1.1288504E-1,-7.9663016E-2,-1.6550747E-3,-8.025037E-2,-7.43639E-2,-3.1308208E-2,-7.294118E-2,-1.5697677E-2,1.80001E-2,-5.0346084E-2,-6.832707E-3,4.8393764E-2,8.6780235E-2,3.3272333E-2,1.1780554E-1,4.6160538E-2,1.3938794E-1,8.31862E-2,1.0248253E-2,7.6492033E-3,1.1283266E-2,3.1411102E-1,5.8065034E-3,2.0459053E-1,-9.202711E-3,-2.5295538E-3,-5.6107766E-3,-1.608496E-3,-4.8561865E-3,-6.6194916E-3,-4.758324E-3,-1.1710695E-3,-4.182126E-3,-9.038113E-4,-3.5079762E-3,-7.7813426E-3,-2.7101212E-3,-2.0654235E-4,-5.8437645E-4,-4.744659E-3,-2.6678937E-3,-2.2182349E-4,1.5181004E-3,-2.0856466E-3,1.2798846E-3,-2.9403938E-3,4.5031565E-4,-3.226043E-3,2.7348644E-3,7.686465E-4,5.368837E-3,3.1587686E-3,-7.909325E-4,4.2311563E-3,1.0305157E-2,5.696995E-3,-9.141111E-4,4.4361274E-3,7.210453E-3,2.2357022E-3,4.703698E-3,-1.4588662E-3,7.3519773E-3,1.7077252E-2,1.1100295E-2,4.700548E-3],"categories":[],"categories_nodes":[],"categories_segments":[],"categories_sizes":[],"default_left":[0,0,0,0,0,0,0,0,0,0,0,0,0,0,0,0,0,0,0,0,0,0,0,0,0,0,0,0,0,0,0,0,0,0,0,0,0,0,0,0,0,0,0,0,0,0,0,0,0,0,0,0,0,0,0,0,0,0,0,0,0,0,0,0,0,0,0,0,0,0,0,0,0,0,0,0,0,0,0,0,0,0,0,0,0,0,0,0,0,0,0,0,0,0,0,0,0,0,0],"id":7,"left_children":[1,3,5,7,9,11,13,-1,15,17,19,21,23,25,27,29,31,33,35,37,39,41,43,45,47,49,51,53,55,57,-1,59,-1,61,63,-1,65,67,69,71,73,75,77,79,81,83,85,87,89,91,93,-1,-1,-1,95,-1,97,-1,-1,-1,-1,-1,-1,-1,-1,-1,-1,-1,-1,-1,-1,-1,-1,-1,-1,-1,-1,-1,-1,-1,-1,-1,-1,-1,-1,-1,-1,-1,-1,-1,-1,-1,-1,-1,-1,-1,-1,-1,-1],"loss_changes":[1.3514074E1,2.1929922E0,2.4887848E0,2.0219755E-1,2.6881516E-1,4.793111E-1,3.501625E-1,0E0,1.8372297E-2,6.2847137E-3,8.5326135E-2,7.316387E-2,3.7760615E-2,2.9553413E-2,6.575918E-2,1.3085842E-2,1.6896725E-3,3.8928986E-3,1.761429E-3,4.584813E-2,6.80695E-2,5.2589536E-2,4.7670424E-2,2.4576485E-2,4.6993256E-2,1.5476942E-2,1.2857676E-2,3.4417868E-2,1.2580156E-2,1.6508102E-3,0E0,5.1419437E-3,0E0,1.1735439E-2,1.2594052E-2,0E0,1.4407113E-3,2.2563934E-2,2.2797663E-2,3.3851594E-2,4.5990102E-2,6.401068E-2,9.859409E-3,1.7028125E-2,3.3711612E-2,1.3635904E-2,3.663067E-2,1.099062E-2,3.7278607E-2,8.15779E-3,1.987224E-2,0E0,0E0,0E0,5.519843E-2,0E0,2.5347829E-2,0E0,0E0,0E0,0E0,0E0,0E0,0E0,0E0,0E0,0E0,0E0,0E0,0E0,0E0,0E0,0E0,0E0,0E0,0E0,0E0,0E0,0E0,0E0,0E0,0E0,0E0,0E0,0E0,0E0,0E0,0E0,0E0,0E0,0E0,0E0,0E0,0E0,0E0,0E0,0E0,0E0,0E0],"parents":[2147483647,0,0,1,1,2,2,3,3,4,4,5,5,6,6,8,8,9,9,10,10,11,11,12,12,13,13,14,14,15,15,16,16,17,17,18,18,19,19,20,20,21,21,22,22,23,23,24,24,25,25,26,26,27,27,28,28,29,29,31,31,33,33,34,34,36,36,37,37,38,38,39,39,40,40,41,41,42,42,43,43,44,44,45,45,46,46,47,47,48,48,49,49,50,50,54,54,56,56],"right_children":[2,4,6,8,10,12,14,-1,16,18,20,22,24,26,28,30,32,34,36,38,40,42,44,46,48,50,52,54,56,58,-1,60,-1,62,64,-1,66,68,70,72,74,76,78,80,82,84,86,88,90,92,94,-1,-1,-1,96,-1,98,-1,-1,-1,-1,-1,-1,-1,-1,-1,-1,-1,-1,-1,-1,-1,-1,-1,-1,-1,-1,-1,-1,-1,-1,-1,-1,-1,-1,-1,-1,-1,-1,-1,-1,-1,-1,-1,-1,-1,-1,-1,-1],"split_conditions":[6.0132134E-1,3.5513875E-1,9.7642267E-1,1.5640602E-1,4.3488804E-1,8.0628455E-1,1.1475028E0,-1.1598205E-2,4.8757017E-2,4.2578486E-1,5.102397E-1,6.584492E-1,1.593822E-1,5E0,3.18E2,2.67E2,2.8089207E-1,2.165774E-2,8.0093004E-2,5.1635727E-3,7.8E1,4.080583E-2,1.4593694E-3,1.5437862E-1,3.46E2,3.8E1,2.99E2,6E0,2.130822E-1,3.0553076E-1,-3.7005604E-3,1.3797859E-2,-7.4706273E-3,4E0,6E0,-1.6550747E-3,1E1,3.799585E-2,5.947328E-3,5.6E1,1.08939745E-1,2.019E3,1E0,1.7616962E-1,4.1704442E-2,4E0,8.563372E-1,8.1707263E-1,3.52E2,1.1199371E0,4.879219E-2,1.0248253E-2,7.6492033E-3,1.1283266E-2,1.9604713E-4,5.8065034E-3,2.4311587E-1,-9.202711E-3,-2.5295538E-3,-5.6107766E-3,-1.608496E-3,-4.8561865E-3,-6.6194916E-3,-4.758324E-3,-1.1710695E-3,-4.182126E-3,-9.038113E-4,-3.5079762E-3,-7.7813426E-3,-2.7101212E-3,-2.0654235E-4,-5.8437645E-4,-4.744659E-3,-2.6678937E-3,-2.2182349E-4,1.5181004E-3,-2.0856466E-3,1.2798846E-3,-2.9403938E-3,4.5031565E-4,-3.226043E-3,2.7348644E-3,7.686465E-4,5.368837E-3,3.1587686E-3,-7.909325E-4,4.2311563E-3,1.0305157E-2,5.696995E-3,-9.141111E-4,4.4361274E-3,7.210453E-3,2.2357022E-3,4.703698E-3,-1.4588662E-3,7.3519773E-3,1.7077252E-2,1.1100295E-2,4.700548E-3],"split_indices":[10,10,10,10,10,10,10,0,12,10,10,10,12,16,19,19,10,15,12,15,19,3,3,12,19,19,19,16,12,10,0,3,0,18,18,0,16,3,3,19,12,20,18,12,3,16,10,10,19,10,3,0,0,0,3,0,12,0,0,0,0,0,0,0,0,0,0,0,0,0,0,0,0,0,0,0,0,0,0,0,0,0,0,0,0,0,0,0,0,0,0,0,0,0,0,0,0,0,0],"split_type":[0,0,0,0,0,0,0,0,0,0,0,0,0,0,0,0,0,0,0,0,0,0,0,0,0,0,0,0,0,0,0,0,0,0,0,0,0,0,0,0,0,0,0,0,0,0,0,0,0,0,0,0,0,0,0,0,0,0,0,0,0,0,0,0,0,0,0,0,0,0,0,0,0,0,0,0,0,0,0,0,0,0,0,0,0,0,0,0,0,0,0,0,0,0,0,0,0,0,0],"sum_hessian":[1.244E3,5.94E2,6.5E2,2.17E2,3.77E2,4.44E2,2.06E2,7.8E1,1.39E2,1.11E2,2.66E2,2.78E2,1.66E2,1.23E2,8.3E1,7.2E1,6.7E1,9.5E1,1.6E1,1.33E2,1.33E2,9.6E1,1.82E2,5.4E1,1.12E2,4.4E1,7.9E1,5.3E1,3E1,6.9E1,3E0,1E1,5.7E1,7.9E1,1.6E1,3E0,1.3E1,9.7E1,3.6E1,2.5E1,1.08E2,8.4E1,1.2E1,1.7E1,1.65E2,4.1E1,1.3E1,1E2,1.2E1,3.1E1,1.3E1,1.9E1,6E1,3.1E1,2.2E1,7E0,2.3E1,6.8E1,1E0,8E0,2E0,4.7E1,3.2E1,1.2E1,4E0,1.2E1,1E0,9.4E1,3E0,1.9E1,1.7E1,7E0,1.8E1,2.4E1,8.4E1,7E1,1.4E1,1E0,1.1E1,1.4E1,3E0,1.38E2,2.7E1,2E1,2.1E1,7E0,6E0,2E0,9.8E1,5E0,7E0,2.9E1,2E0,1.2E1,1E0,4E0,1.8E1,1.9E1,4E0],"tree_param":{"num_deleted":"0","num_feature":"21","num_nodes":"99","size_leaf_vector":"1"}},{"base_weights":[-2.8503954E-3,-1.060628E-1,9.252548E-2,-1.7535445E-1,-5.9183076E-2,5.72349E-2,1.8924184E-1,-2.1017973E-1,-1.4375922E-1,-8.403089E-2,-3.690089E-2,3.172976E-2,9.655613E-2,1.5213628E-1,2.4798273E-1,-1.1482453E-2,-9.250774E-3,-1.4843369E-1,-8.0121E-2,-9.7064294E-2,-3.8431548E-2,-4.9969084E-3,-4.7650147E-2,2.4391133E-3,4.5836847E-2,9.198136E-2,1.21883275E-2,1.439536E-1,9.839736E-3,1.5562525E-1,1.3628873E-2,-1.6184554E-1,-1.2867844E-1,-1.553275E-3,-5.1857396E-3,-8.515045E-3,-1.0128027E-1,-4.583315E-2,3.779079E-2,-3.2647513E-2,2.5166117E-2,-5.228701E-2,-7.866897E-3,-3.3300184E-2,1.2413595E-2,4.7846828E-2,-3.1050665E-3,-2.4506997E-3,9.466278E-2,1.3232738E-1,1.8633647E-1,8.257621E-3,3.1794683E-4,-8.151557E-3,-2.0898804E-3,-1.7672934E-3,-6.4896788E-3,-2.1086426E-3,1.3635763E-3,-4.86345E-3,-7.364258E-3,1.2433772E-3,-2.5361709E-3,2.9662782E-3,-6.7033846E-4,1.1223425E-3,-2.514908E-3,-1.1654007E-3,2.7902233E-3,-2.2237503E-3,-4.3774997E-3,4.681559E-3,-1.0437757E-3,-2.9620529E-5,-3.1490333E-3,1.989155E-3,2.7399437E-4,2.126494E-3,4.2532855E-3,-2.2452415E-3,7.5105455E-4,3.7984408E-3,5.216363E-3,6.663078E-3,1.5098908E-3,5.7137976E-3,1.0642187E-2],"categories":[],"categories_nodes":[],"categories_segments":[],"categories_sizes":[],"default_left":[0,0,0,0,0,0,0,0,0,0,0,0,0,0,0,0,0,0,0,0,0,0,0,0,0,0,0,0,0,0,0,0,0,0,0,0,0,0,0,0,0,0,0,0,0,0,0,0,0,0,0,0,0,0,0,0,0,0,0,0,0,0,0,0,0,0,0,0,0,0,0,0,0,0,0,0,0,0,0,0,0,0,0,0,0,0,0],"id":8,"left_children":[1,3,5,7,9,11,13,15,17,19,21,23,25,27,29,-1,-1,31,33,35,37,39,41,43,45,47,-1,49,-1,51,-1,53,55,-1,-1,57,59,61,63,65,67,69,71,73,75,77,-1,79,81,83,85,-1,-1,-1,-1,-1,-1,-1,-1,-1,-1,-1,-1,-1,-1,-1,-1,-1,-1,-1,-1,-1,-1,-1,-1,-1,-1,-1,-1,-1,-1,-1,-1,-1,-1,-1,-1],"loss_changes":[1.2216341E1,1.9256535E0,2.1906676E0,2.3385906E-1,1.9455695E-1,4.7230744E-1,3.371663E-1,1.2383461E-2,2.6481628E-2,9.6114635E-2,6.492123E-2,1.1930466E-1,1.0284054E-1,1.1136532E-2,1.05228186E-1,0E0,0E0,1.0703564E-2,9.509496E-3,4.766941E-2,2.3734614E-2,4.1688878E-2,2.578336E-2,3.4279067E-2,4.5277268E-2,4.6316504E-2,0E0,2.2154212E-2,0E0,2.1703154E-2,0E0,2.7217865E-3,9.2846155E-4,0E0,0E0,9.5816E-3,8.556366E-3,1.3708189E-2,5.2054757E-3,2.6412768E-2,3.6944706E-2,3.1091481E-2,2.3080193E-2,2.0349124E-2,1.4014906E-2,3.4377217E-2,0E0,5.1250174E-3,2.40525E-2,3.417492E-3,1.0059357E-2,0E0,0E0,0E0,0E0,0E0,0E0,0E0,0E0,0E0,0E0,0E0,0E0,0E0,0E0,0E0,0E0,0E0,0E0,0E0,0E0,0E0,0E0,0E0,0E0,0E0,0E0,0E0,0E0,0E0,0E0,0E0,0E0,0E0,0E0,0E0,0E0],"parents":[2147483647,0,0,1,1,2,2,3,3,4,4,5,5,6,6,7,7,8,8,9,9,10,10,11,11,12,12,13,13,14,14,17,17,18,18,19,19,20,20,21,21,22,22,23,23,24,24,25,25,27,27,29,29,31,31,32,32,35,35,36,36,37,37,38,38,39,39,40,40,41,41,42,42,43,43,44,44,45,45,47,47,48,48,49,49,50,50],"right_children":[2,4,6,8,10,12,14,16,18,20,22,24,26,28,30,-1,-1,32,34,36,38,40,42,44,46,48,-1,50,-1,52,-1,54,56,-1,-1,58,60,62,64,66,68,70,72,74,76,78,-1,80,82,84,86,-1,-1,-1,-1,-1,-1,-1,-1,-1,-1,-1,-1,-1,-1,-1,-1,-1,-1,-1,-1,-1,-1,-1,-1,-1,-1,-1,-1,-1,-1,-1,-1,-1,-1,-1,-1],"split_conditions":[3.4094366E-1,2.4378768E-1,4.9425885E-1,2.4701597E-2,1.0039982E-1,4.2389372E-1,5.6084085E-1,3.1649806E-3,4.3321624E-2,2.0982586E-3,8E0,3.622849E-1,5.5362977E-2,3.49E2,2.016E3,-1.1482453E-2,-9.250774E-3,2.2253959E-1,6E0,4.2E1,2.967905E-1,3.1793296E-1,2.8677713E-2,1.18702255E-1,1.7719044E-1,1.3146226E-1,1.21883275E-2,1.5305297E-2,9.839736E-3,3.47E2,1.3628873E-2,7.630918E-2,6.1E1,-1.553275E-3,-5.1857396E-3,8.47619E-2,2.55E2,2.8756633E-3,8.165823E-3,3E0,9.5E1,2.019E3,2.9351015E-2,2.018E3,3.4353206E-1,1.615742E-1,-3.1050665E-3,4.288443E-1,1.6420025E-1,1.3674341E-2,2.017E3,8.257621E-3,3.1794683E-4,-8.151557E-3,-2.0898804E-3,-1.7672934E-3,-6.4896788E-3,-2.1086426E-3,1.3635763E-3,-4.86345E-3,-7.364258E-3,1.2433772E-3,-2.5361709E-3,2.9662782E-3,-6.7033846E-4,1.1223425E-3,-2.514908E-3,-1.1654007E-3,2.7902233E-3,-2.2237503E-3,-4.3774997E-3,4.681559E-3,-1.0437757E-3,-2.9620529E-5,-3.1490333E-3,1.989155E-3,2.7399437E-4,2.126494E-3,4.2532855E-3,-2.2452415E-3,7.5105455E-4,3.7984408E-3,5.216363E-3,6.663078E-3,1.5098908E-3,5.7137976E-3,1.0642187E-2],"split_indices":[0,0,0,12,12,0,0,12,15,15,17,0,15,19,20,0,0,0,17,19,0,0,15,12,12,12,0,15,0,19,0,12,19,0,0,12,19,15,15,17,19,20,15,20,0,12,0,0,12,15,20,0,0,0,0,0,0,0,0,0,0,0,0,0,0,0,0,0,0,0,0,0,0,0,0,0,0,0,0,0,0,0,0,0,0,0,0],"split_type":[0,0,0,0,0,0,0,0,0,0,0,0,0,0,0,0,0,0,0,0,0,0,0,0,0,0,0,0,0,0,0,0,0,0,0,0,0,0,0,0,0,0,0,0,0,0,0,0,0,0,0,0,0,0,0,0,0,0,0,0,0,0,0,0,0,0,0,0,0,0,0,0,0,0,0,0,0,0,0,0,0,0,0,0,0,0,0],"sum_hessian":[1.239E3,5.95E2,6.44E2,2.39E2,3.56E2,4.73E2,1.71E2,1.11E2,1.28E2,1.67E2,1.89E2,2.88E2,1.85E2,1.07E2,6.4E1,5.8E1,5.3E1,1.18E2,1E1,1.29E2,3.8E1,4.8E1,1.41E2,9.4E1,1.94E2,1.81E2,4E0,9.4E1,1.3E1,1.5E1,4.9E1,6.6E1,5.2E1,4E0,6E0,6E0,1.23E2,3.5E1,3E0,2.5E1,2.3E1,1.26E2,1.5E1,2E1,7.4E1,1.91E2,3E0,5E0,1.76E2,7.7E1,1.7E1,1.4E1,1E0,6.5E1,1E0,1E0,5.1E1,3E0,3E0,1.16E2,7E0,2E0,3.3E1,2E0,1E0,6E0,1.9E1,9E0,1.4E1,1.05E2,2.1E1,1E0,1.4E1,1E1,1E1,1.4E1,6E1,1.69E2,2.2E1,1E0,4E0,6.3E1,1.13E2,7.6E1,1E0,6E0,1.1E1],"tree_param":{"num_deleted":"0","num_feature":"21","num_nodes":"87","size_leaf_vector":"1"}},{"base_weights":[1.6840838E-3,-1.00297354E-1,9.1128066E-2,-1.6784444E-1,-5.7081554E-2,4.9450073E-2,1.6917211E-1,-2.0169447E-1,-1.4246756E-1,-9.773762E-2,-4.4269044E-2,2.3890438E-2,8.1744716E-2,1.3991924E-1,2.2510093E-1,-1.0132509E-2,-2.8203172E-3,-1.4408568E-1,-2.4860168E-2,-8.766335E-2,-1.168393E-1,-8.178894E-2,-3.4772053E-2,9.39909E-3,3.402942E-2,6.789554E-2,9.7025625E-2,3.0177336E-3,1.4171252E-1,2.0791204E-1,1.5466662E-2,-1.5680498E-1,-1.2559265E-1,1.3073087E-4,-1.9952436E-3,-6.768894E-2,-1.00359574E-1,-2.1203884E-3,-6.0637468E-3,-3.6314752E-2,-9.2577346E-2,-5.2979574E-2,-1.5736807E-2,-2.0928403E-2,2.802406E-2,-1.0067334E-2,3.8177334E-2,7.6621935E-2,3.760431E-2,1.1649218E-1,8.322765E-2,-3.2798022E-3,3.5061322E-3,1.279052E-1,1.5946968E-1,1.0462992E-2,2.9739307E-3,-3.5728717E-3,-7.972095E-3,-6.3604373E-3,-8.36879E-4,-3.571105E-3,6.4099877E-4,-5.2414327E-3,-2.0317154E-3,6.5584603E-4,-3.13351E-3,-3.6044035E-3,-6.132375E-3,-3.5544517E-4,-3.0315164E-3,-1.1475052E-4,-2.1853491E-3,3.095238E-4,-2.0031433E-3,3.6110287E-3,8.1043964E-4,8.4424875E-4,-9.920764E-4,2.3245227E-3,8.4137014E-4,3.248206E-3,5.9232158E-3,-2.6273998E-3,2.6143177E-3,6.699547E-3,4.0961592E-3,3.1996113E-3,5.111065E-3,4.907721E-3,6.832659E-3,8.1212E-3,2.36134E-3],"categories":[],"categories_nodes":[],"categories_segments":[],"categories_sizes":[],"default_left":[0,0,0,0,0,0,0,0,0,0,0,0,0,0,0,0,0,0,0,0,0,0,0,0,0,0,0,0,0,0,0,0,0,0,0,0,0,0,0,0,0,0,0,0,0,0,0,0,0,0,0,0,0,0,0,0,0,0,0,0,0,0,0,0,0,0,0,0,0,0,0,0,0,0,0,0,0,0,0,0,0,0,0,0,0,0,0,0,0,0,0,0,0],"id":9,"left_children":[1,3,5,7,9,11,13,15,17,19,21,23,25,27,29,-1,-1,31,33,35,37,39,41,43,45,47,49,51,53,55,-1,57,59,-1,-1,61,63,-1,-1,65,67,69,71,73,75,77,79,81,83,85,87,-1,-1,89,91,-1,-1,-1,-1,-1,-1,-1,-1,-1,-1,-1,-1,-1,-1,-1,-1,-1,-1,-1,-1,-1,-1,-1,-1,-1,-1,-1,-1,-1,-1,-1,-1,-1,-1,-1,-1,-1,-1],"loss_changes":[1.1283469E1,1.6776595E0,2.1351762E0,1.6454124E-1,1.8007421E-1,3.538115E-1,3.4316635E-1,1.6217232E-3,2.1538258E-2,5.92196E-3,9.372038E-2,3.5236627E-2,3.362167E-2,3.713417E-2,4.7171116E-2,0E0,0E0,1.0884762E-2,1.3443858E-3,8.169144E-3,3.4409463E-3,2.3130119E-2,7.4721694E-2,5.7636213E-2,2.6357472E-2,2.434501E-2,1.3941288E-2,1.8412733E-2,1.6625166E-2,9.572506E-4,0E0,5.0355196E-3,8.074164E-3,0E0,0E0,8.729987E-3,4.815519E-3,0E0,0E0,1.6455567E-2,1.7651558E-2,3.8523912E-2,4.050439E-2,2.0485306E-2,3.1727597E-2,3.7597048E-3,2.2290677E-2,3.0839533E-2,3.5838034E-2,9.590119E-3,1.3552904E-2,0E0,0E0,1.0010123E-2,1.2888551E-2,0E0,0E0,0E0,0E0,0E0,0E0,0E0,0E0,0E0,0E0,0E0,0E0,0E0,0E0,0E0,0E0,0E0,0E0,0E0,0E0,0E0,0E0,0E0,0E0,0E0,0E0,0E0,0E0,0E0,0E0,0E0,0E0,0E0,0E0,0E0,0E0,0E0,0E0],"parents":[2147483647,0,0,1,1,2,2,3,3,4,4,5,5,6,6,7,7,8,8,9,9,10,10,11,11,12,12,13,13,14,14,17,17,18,18,19,19,20,20,21,21,22,22,23,23,24,24,25,25,26,26,27,27,28,28,29,29,31,31,32,32,35,35,36,36,39,39,40,40,41,41,42,42,43,43,44,44,45,45,46,46,47,47,48,48,49,49,50,50,53,53,54,54],"right_children":[2,4,6,8,10,12,14,16,18,20,22,24,26,28,30,-1,-1,32,34,36,38,40,42,44,46,48,50,52,54,56,-1,58,60,-1,-1,62,64,-1,-1,66,68,70,72,74,76,78,80,82,84,86,88,-1,-1,90,92,-1,-1,-1,-1,-1,-1,-1,-1,-1,-1,-1,-1,-1,-1,-1,-1,-1,-1,-1,-1,-1,-1,-1,-1,-1,-1,-1,-1,-1,-1,-1,-1,-1,-1,-1,-1,-1,-1],"split_conditions":[5.993091E-1,3.625755E-1,9.539685E-1,1.5477403E-1,4.316414E-1,7.6889884E-1,1.1698035E0,2.7E2,5.4336913E-2,2.2E1,7.9E1,6.584492E-1,8.563372E-1,4.5095378E-1,6.3724184E-1,-1.0132509E-2,-2.8203172E-3,2.18521E-1,1.5928325E-1,1.3668777E-2,2.4008746E-1,4.9E1,5.102397E-1,9.5E1,1.9604713E-4,4.080583E-2,8.890531E-1,6.7499094E-4,4E0,1.3768024E0,1.5466662E-2,2.016E3,4.077193E-2,1.3073087E-4,-1.9952436E-3,1.35095585E-2,2.1E1,-2.1203884E-3,-6.0637468E-3,3.0386727E-2,4E0,9.9E1,2.018E3,5.6E1,3.0064294E-3,8.588836E-3,3.9868203E-1,2.7869772E-2,4.224729E-2,1.7E1,4.6597373E-1,-3.2798022E-3,3.5061322E-3,6.4E1,5.79023E-2,1.0462992E-2,2.9739307E-3,-3.5728717E-3,-7.972095E-3,-6.3604373E-3,-8.36879E-4,-3.571105E-3,6.4099877E-4,-5.2414327E-3,-2.0317154E-3,6.5584603E-4,-3.13351E-3,-3.6044035E-3,-6.132375E-3,-3.5544517E-4,-3.0315164E-3,-1.1475052E-4,-2.1853491E-3,3.095238E-4,-2.0031433E-3,3.6110287E-3,8.1043964E-4,8.4424875E-4,-9.920764E-4,2.3245227E-3,8.4137014E-4,3.248206E-3,5.9232158E-3,-2.6273998E-3,2.6143177E-3,6.699547E-3,4.0961592E-3,3.1996113E-3,5.111065E-3,4.907721E-3,6.832659E-3,8.1212E-3,2.36134E-3],"split_indices":[10,10,10,0,10,10,10,19,15,17,19,10,10,0,0,0,0,0,0,3,0,19,10,19,3,3,10,3,18,10,0,20,15,0,0,3,17,0,0,3,18,19,20,19,3,15,0,3,3,17,0,0,0,19,3,0,0,0,0,0,0,0,0,0,0,0,0,0,0,0,0,0,0,0,0,0,0,0,0,0,0,0,0,0,0,0,0,0,0,0,0,0,0],"split_type":[0,0,0,0,0,0,0,0,0,0,0,0,0,0,0,0,0,0,0,0,0,0,0,0,0,0,0,0,0,0,0,0,0,0,0,0,0,0,0,0,0,0,0,0,0,0,0,0,0,0,0,0,0,0,0,0,0,0,0,0,0,0,0,0,0,0,0,0,0,0,0,0,0,0,0,0,0,0,0,0,0,0,0,0,0,0,0,0,0,0,0,0,0],"sum_hessian":[1.235E3,5.77E2,6.58E2,2.24E2,3.53E2,4.3E2,2.28E2,9.3E1,1.31E2,8.3E1,2.7E2,2.41E2,1.89E2,1.52E2,7.6E1,9.2E1,1E0,1.29E2,2E0,5.8E1,2.5E1,5.3E1,2.17E2,1E2,1.41E2,1.02E2,8.7E1,2E0,1.5E2,6.6E1,1E1,7.2E1,5.7E1,1E0,1E0,2.5E1,3.3E1,2E0,2.3E1,1.1E1,4.2E1,1.1E2,1.07E2,3.8E1,6.2E1,1.2E1,1.29E2,7.8E1,2.4E1,3.3E1,5.4E1,1E0,1E0,8.9E1,6.1E1,6.5E1,1E0,3E0,6.9E1,5.6E1,1E0,2.4E1,1E0,3E1,3E0,4E0,7E0,2.7E1,1.5E1,1.6E1,9.4E1,7.3E1,3.4E1,1.6E1,2.2E1,1.2E1,5E1,3E0,9E0,9.2E1,3.7E1,6.3E1,1.5E1,3E0,2.1E1,2E1,1.3E1,2.9E1,2.5E1,2.3E1,6.6E1,5.9E1,2E0],"tree_param":{"num_deleted":"0","num_feature":"21","num_nodes":"93","size_leaf_vector":"1"}},{"base_weights":[1.636869E-3,-9.417043E-2,8.610182E-2,-1.42665E-1,-3.9690424E-2,4.6817273E-2,1.5404424E-1,-1.8381907E-1,-1.1490445E-1,-5.2746966E-2,-1.4396484E-2,2.5312891E-2,7.336114E-2,1.2489318E-1,2.0704214E-1,-1.1009504E-2,-1.6956559E-1,-1.2962276E-1,-9.94414E-2,-6.3843496E-2,-2.3991281E-2,-5.2673244E-3,-5.91425E-2,3.1509686E-2,4.188146E-3,8.179386E-2,3.9262794E-2,1.19907476E-1,9.705563E-3,1.915928E-1,1.418861E-2,-8.528692E-3,-1.9453627E-3,-1.3128155E-1,-1.8325584E-3,-8.440176E-2,-1.1300526E-1,-7.2705075E-2,-3.3198297E-2,4.60501E-3,-3.801248E-2,-5.843386E-2,2.2951076E-3,7.8051835E-3,-7.519236E-2,1.880032E-2,4.905213E-2,3.4232486E-2,-3.2032587E-2,1.0461265E-1,7.359838E-2,4.22562E-2,-1.8621646E-3,1.1399988E-1,1.5076841E-1,1.9297385E-1,2.3038976E-3,-4.73994E-3,-6.8104914E-3,-3.1924106E-3,-5.157568E-3,-5.8132885E-3,-1.3214623E-3,-1.0290393E-3,-3.850696E-3,-2.5701933E-3,2.2879055E-4,-8.1696204E-4,1.6413864E-3,-2.1911485E-3,1.9286856E-3,-4.7308006E-3,9.746686E-4,-2.0753313E-4,1.4417538E-3,1.3659398E-7,7.8031345E-4,2.189974E-4,-4.502912E-3,4.2423694E-3,6.271467E-4,-2.8464745E-4,2.7836913E-3,-3.267852E-4,2.908955E-3,-3.7946512E-3,3.9250575E-4,1.2558544E-3,5.674368E-3,3.1421285E-3,5.200279E-3,-1.4023095E-3,2.2457135E-3,5.796488E-3,2.7397042E-3,1.7838925E-4,7.897503E-3,9.749706E-3,4.0755034E-3],"categories":[],"categories_nodes":[],"categories_segments":[],"categories_sizes":[],"default_left":[0,0,0,0,0,0,0,0,0,0,0,0,0,0,0,0,0,0,0,0,0,0,0,0,0,0,0,0,0,0,0,0,0,0,0,0,0,0,0,0,0,0,0,0,0,0,0,0,0,0,0,0,0,0,0,0,0,0,0,0,0,0,0,0,0,0,0,0,0,0,0,0,0,0,0,0,0,0,0,0,0,0,0,0,0,0,0,0,0,0,0,0,0,0,0,0,0,0,0],"id":10,"left_children":[1,3,5,7,9,11,13,15,17,19,21,23,25,27,29,-1,31,33,35,37,39,41,43,45,47,49,51,53,-1,55,-1,-1,-1,57,-1,59,61,63,65,67,69,71,73,75,77,79,81,83,85,87,89,91,-1,93,95,97,-1,-1,-1,-1,-1,-1,-1,-1,-1,-1,-1,-1,-1,-1,-1,-1,-1,-1,-1,-1,-1,-1,-1,-1,-1,-1,-1,-1,-1,-1,-1,-1,-1,-1,-1,-1,-1,-1,-1,-1,-1,-1,-1],"loss_changes":[1.0034541E1,1.5293303E0,1.7517166E0,3.296132E-1,9.005973E-2,2.3731208E-1,3.464737E-1,2.59099E-2,2.9441833E-2,5.6223273E-2,3.849536E-2,3.0369058E-2,5.0558805E-2,3.1250715E-2,4.5207262E-2,0E0,5.482912E-3,9.376645E-3,9.84174E-3,3.2889783E-2,2.102467E-2,3.2299574E-2,1.777891E-2,3.920941E-2,5.9860863E-2,2.0165443E-2,1.05053E-2,1.0159254E-2,0E0,5.7787895E-3,0E0,0E0,0E0,3.2691956E-3,0E0,1.22971535E-2,1.0194421E-2,2.08745E-2,2.1553889E-2,1.1176245E-2,1.7265521E-2,3.0040134E-2,1.2265691E-2,2.4342774E-4,1.5772305E-2,4.2743664E-2,2.7504846E-2,2.9668052E-2,4.4327587E-2,2.3252994E-2,3.0421138E-2,8.3606765E-3,0E0,8.50153E-3,2.1636426E-2,3.194809E-4,0E0,0E0,0E0,0E0,0E0,0E0,0E0,0E0,0E0,0E0,0E0,0E0,0E0,0E0,0E0,0E0,0E0,0E0,0E0,0E0,0E0,0E0,0E0,0E0,0E0,0E0,0E0,0E0,0E0,0E0,0E0,0E0,0E0,0E0,0E0,0E0,0E0,0E0,0E0,0E0,0E0,0E0,0E0],"parents":[2147483647,0,0,1,1,2,2,3,3,4,4,5,5,6,6,7,7,8,8,9,9,10,10,11,11,12,12,13,13,14,14,16,16,17,17,18,18,19,19,20,20,21,21,22,22,23,23,24,24,25,25,26,26,27,27,29,29,33,33,35,35,36,36,37,37,38,38,39,39,40,40,41,41,42,42,43,43,44,44,45,45,46,46,47,47,48,48,49,49,50,50,51,51,53,53,54,54,55,55],"right_children":[2,4,6,8,10,12,14,16,18,20,22,24,26,28,30,-1,32,34,36,38,40,42,44,46,48,50,52,54,-1,56,-1,-1,-1,58,-1,60,62,64,66,68,70,72,74,76,78,80,82,84,86,88,90,92,-1,94,96,98,-1,-1,-1,-1,-1,-1,-1,-1,-1,-1,-1,-1,-1,-1,-1,-1,-1,-1,-1,-1,-1,-1,-1,-1,-1,-1,-1,-1,-1,-1,-1,-1,-1,-1,-1,-1,-1,-1,-1,-1,-1,-1,-1],"split_conditions":[5.993091E-1,4.287102E-1,9.4769955E-1,1.8800306E-1,5.4596496E-1,7.6889884E-1,1.1475028E0,6.04343E-2,3.5513875E-1,5.1635727E-3,6E0,3.3914216E-2,4.020486E-2,2.3033825E-1,6.3724184E-1,-1.1009504E-2,2.7E2,4.0259905E-2,1.3668777E-2,2.3E1,1E1,7E1,6.339441E-3,3.755695E-1,1.02E2,1.5405962E-1,3E1,3.5E2,9.705563E-3,5.79023E-2,1.418861E-2,-8.528692E-3,-1.9453627E-3,1.04E2,-1.8325584E-3,1.7E1,2.8743944E-1,4E0,4.897041E-1,2.21E2,3.1E1,1.2015223E-1,1.3334915E-1,3.1638315E-1,8E0,1.09661244E-1,1.4593694E-3,1E1,4E0,5E0,1.8710181E-1,4.080583E-2,-1.8621646E-3,3.47E2,1.4489714E-2,3.3978283E-2,2.3038976E-3,-4.73994E-3,-6.8104914E-3,-3.1924106E-3,-5.157568E-3,-5.8132885E-3,-1.3214623E-3,-1.0290393E-3,-3.850696E-3,-2.5701933E-3,2.2879055E-4,-8.1696204E-4,1.6413864E-3,-2.1911485E-3,1.9286856E-3,-4.7308006E-3,9.746686E-4,-2.0753313E-4,1.4417538E-3,1.3659398E-7,7.8031345E-4,2.189974E-4,-4.502912E-3,4.2423694E-3,6.271467E-4,-2.8464745E-4,2.7836913E-3,-3.267852E-4,2.908955E-3,-3.7946512E-3,3.9250575E-4,1.2558544E-3,5.674368E-3,3.1421285E-3,5.200279E-3,-1.4023095E-3,2.2457135E-3,5.796488E-3,2.7397042E-3,1.7838925E-4,7.897503E-3,9.749706E-3,4.0755034E-3],"split_indices":[10,10,10,0,10,10,10,10,10,15,18,3,3,12,0,0,19,15,3,17,17,19,3,0,19,12,17,19,0,3,0,0,0,19,0,17,0,17,10,19,17,12,12,0,17,12,3,17,18,17,12,3,0,19,3,15,0,0,0,0,0,0,0,0,0,0,0,0,0,0,0,0,0,0,0,0,0,0,0,0,0,0,0,0,0,0,0,0,0,0,0,0,0,0,0,0,0,0,0],"split_type":[0,0,0,0,0,0,0,0,0,0,0,0,0,0,0,0,0,0,0,0,0,0,0,0,0,0,0,0,0,0,0,0,0,0,0,0,0,0,0,0,0,0,0,0,0,0,0,0,0,0,0,0,0,0,0,0,0,0,0,0,0,0,0,0,0,0,0,0,0,0,0,0,0,0,0,0,0,0,0,0,0,0,0,0,0,0,0,0,0,0,0,0,0,0,0,0,0,0,0],"sum_hessian":[1.238E3,5.8E2,6.58E2,3.06E2,2.74E2,4.18E2,2.4E2,1.21E2,1.85E2,1.8E2,9.4E1,2.32E2,1.86E2,1.57E2,8.3E1,3E1,9.1E1,9.1E1,9.4E1,1.29E2,5.1E1,7.9E1,1.5E1,1.79E2,5.3E1,1.48E2,3.8E1,1.49E2,8E0,7.2E1,1.1E1,9E1,1E0,8.9E1,2E0,4.8E1,4.6E1,9.9E1,3E1,1.7E1,3.4E1,9E0,7E1,3E0,1.2E1,1.05E2,7.4E1,2.9E1,2.4E1,3.6E1,1.12E2,3.7E1,1E0,1.29E2,2E1,7.1E1,1E0,1.3E1,7.6E1,2.5E1,2.3E1,4.4E1,2E0,8E0,9.1E1,2E1,1E1,1E1,7E0,3.2E1,2E0,6E0,3E0,5.7E1,1.3E1,2E0,1E0,2E0,1E1,8E0,9.7E1,8E0,6.6E1,1.1E1,1.8E1,1.1E1,1.3E1,4E0,3.2E1,8.5E1,2.7E1,1E0,3.6E1,1.24E2,5E0,1E0,1.9E1,6.9E1,2E0],"tree_param":{"num_deleted":"0","num_feature":"21","num_nodes":"99","size_leaf_vector":"1"}},{"base_weights":[2.5051197E-5,-8.447598E-2,8.562345E-2,-1.4844728E-1,-4.3561045E-2,5.2982986E-2,1.625652E-1,-1.2554206E-1,-1.8280971E-1,-7.198269E-2,-2.1385232E-2,2.989093E-2,8.13964E-2,1.356877E-1,2.092707E-1,-1.2697741E-1,-2.088314E-3,-1.0678164E-2,-8.372906E-3,-7.372755E-2,2.3989424E-3,8.1695095E-3,-2.6951335E-2,9.677987E-3,4.1043416E-2,9.904474E-2,6.8675585E-2,1.1580863E-1,1.5825768E-1,1.8589658E-1,1.4423375E-2,-6.780115E-3,-1.0877852E-1,-4.030837E-2,-8.1465185E-2,-2.2714091E-2,4.2205915E-2,-1.5529121E-2,-4.0388323E-2,-3.6928412E-3,1.2512416E-2,4.776252E-2,1.3724272E-2,6.610978E-2,1.2245984E-1,-3.363212E-2,7.1689345E-2,1.074263E-1,8.209999E-3,1.14967845E-1,1.7723623E-1,1.8786256E-1,2.09163E-3,-7.8678207E-4,-5.5147177E-3,-4.2327023E-3,-1.1365796E-3,-4.304841E-3,-4.0425893E-4,1.0739252E-3,-1.7965342E-3,5.0077415E-3,7.462176E-5,-1.8835714E-3,4.621599E-4,7.3682016E-4,-2.4070763E-3,3.3013124E-4,3.0841846E-3,2.1377748E-3,6.9554034E-3,3.1399762E-3,-1.6635755E-3,1.8642193E-3,4.421073E-3,1.0009388E-2,5.3869574E-3,8.3668873E-4,-4.618245E-3,1.2814512E-3,3.8972024E-3,5.616877E-3,1.5467579E-3,3.1521418E-3,6.230583E-3,4.98227E-3,9.342327E-3,2.5284798E-3,9.478151E-3],"categories":[],"categories_nodes":[],"categories_segments":[],"categories_sizes":[],"default_left":[0,0,0,0,0,0,0,0,0,0,0,0,0,0,0,0,0,0,0,0,0,0,0,0,0,0,0,0,0,0,0,0,0,0,0,0,0,0,0,0,0,0,0,0,0,0,0,0,0,0,0,0,0,0,0,0,0,0,0,0,0,0,0,0,0,0,0,0,0,0,0,0,0,0,0,0,0,0,0,0,0,0,0,0,0,0,0,0,0],"id":11,"left_children":[1,3,5,7,9,11,13,15,17,19,21,23,25,27,29,31,-1,-1,-1,33,-1,35,37,39,41,43,45,47,49,51,-1,-1,53,55,57,59,61,63,65,-1,67,69,71,73,75,77,79,81,-1,83,85,87,-1,-1,-1,-1,-1,-1,-1,-1,-1,-1,-1,-1,-1,-1,-1,-1,-1,-1,-1,-1,-1,-1,-1,-1,-1,-1,-1,-1,-1,-1,-1,-1,-1,-1,-1,-1,-1],"loss_changes":[8.96911E0,1.6267796E0,1.5384178E0,1.6831017E-1,2.3922497E-1,2.823248E-1,2.0132971E-1,1.2613773E-2,9.088039E-3,3.8493216E-2,3.5753213E-2,5.3930104E-2,3.675139E-2,3.5063982E-2,6.669998E-2,8.166075E-3,0E0,0E0,0E0,3.9382815E-2,0E0,3.7749503E-2,2.730617E-2,2.152342E-2,2.7796328E-2,5.282712E-2,3.817749E-2,9.537935E-3,2.3167253E-2,7.152319E-3,0E0,0E0,5.5983663E-3,2.3797669E-2,4.450661E-2,1.1869173E-2,3.9958656E-2,5.519983E-2,3.6183074E-2,0E0,2.4293039E-2,5.076614E-2,7.589199E-2,1.921326E-2,2.9921353E-2,1.337813E-2,3.0556977E-2,1.9064844E-2,0E0,1.6584694E-3,7.4800253E-3,2.5538206E-3,0E0,0E0,0E0,0E0,0E0,0E0,0E0,0E0,0E0,0E0,0E0,0E0,0E0,0E0,0E0,0E0,0E0,0E0,0E0,0E0,0E0,0E0,0E0,0E0,0E0,0E0,0E0,0E0,0E0,0E0,0E0,0E0,0E0,0E0,0E0,0E0,0E0],"parents":[2147483647,0,0,1,1,2,2,3,3,4,4,5,5,6,6,7,7,8,8,9,9,10,10,11,11,12,12,13,13,14,14,15,15,19,19,21,21,22,22,23,23,24,24,25,25,26,26,27,27,28,28,29,29,32,32,33,33,34,34,35,35,36,36,37,37,38,38,40,40,41,41,42,42,43,43,44,44,45,45,46,46,47,47,49,49,50,50,51,51],"right_children":[2,4,6,8,10,12,14,16,18,20,22,24,26,28,30,32,-1,-1,-1,34,-1,36,38,40,42,44,46,48,50,52,-1,-1,54,56,58,60,62,64,66,-1,68,70,72,74,76,78,80,82,-1,84,86,88,-1,-1,-1,-1,-1,-1,-1,-1,-1,-1,-1,-1,-1,-1,-1,-1,-1,-1,-1,-1,-1,-1,-1,-1,-1,-1,-1,-1,-1,-1,-1,-1,-1,-1,-1,-1,-1],"split_conditions":[3.494786E-1,2.4498573E-1,4.9425885E-1,5.2885916E-3,1.0185172E-1,4.205057E-1,5.6084085E-1,2.79E2,8.752814E-2,2.87E2,1.3392027E-3,3.6973247E-1,1.8612929E-2,2.060562E-1,6.3724184E-1,2.26057E-1,-2.088314E-3,-1.0678164E-2,-8.372906E-3,9.624312E-3,2.3989424E-3,3.2531312E-1,1.23E2,9.472251E-2,4.12137E-2,1.41E2,2.011444E-2,3.49E2,8E0,3.61E2,1.4423375E-2,-6.780115E-3,3.0521417E-2,3.3595478E-3,3.240354E-1,7E0,1.4E1,8E1,6E0,-3.6928412E-3,4.224729E-2,4.020486E-2,5E1,1.7828529E-1,1.5590756E-1,4.647691E-1,1.4109518E-1,3.46E2,8.209999E-3,4E0,1.9604713E-4,2E0,2.09163E-3,-7.8678207E-4,-5.5147177E-3,-4.2327023E-3,-1.1365796E-3,-4.304841E-3,-4.0425893E-4,1.0739252E-3,-1.7965342E-3,5.0077415E-3,7.462176E-5,-1.8835714E-3,4.621599E-4,7.3682016E-4,-2.4070763E-3,3.3013124E-4,3.0841846E-3,2.1377748E-3,6.9554034E-3,3.1399762E-3,-1.6635755E-3,1.8642193E-3,4.421073E-3,1.0009388E-2,5.3869574E-3,8.3668873E-4,-4.618245E-3,1.2814512E-3,3.8972024E-3,5.616877E-3,1.5467579E-3,3.1521418E-3,6.230583E-3,4.98227E-3,9.342327E-3,2.5284798E-3,9.478151E-3],"split_indices":[0,0,0,14,12,0,0,19,0,19,3,0,3,12,0,0,0,0,0,3,0,0,19,12,3,19,3,19,17,19,0,0,12,3,0,16,17,19,17,0,3,3,19,12,12,0,12,19,0,16,3,17,0,0,0,0,0,0,0,0,0,0,0,0,0,0,0,0,0,0,0,0,0,0,0,0,0,0,0,0,0,0,0,0,0,0,0,0,0],"split_type":[0,0,0,0,0,0,0,0,0,0,0,0,0,0,0,0,0,0,0,0,0,0,0,0,0,0,0,0,0,0,0,0,0,0,0,0,0,0,0,0,0,0,0,0,0,0,0,0,0,0,0,0,0,0,0,0,0,0,0,0,0,0,0,0,0,0,0,0,0,0,0,0,0,0,0,0,0,0,0,0,0,0,0,0,0,0,0,0,0],"sum_hessian":[1.238E3,6.23E2,6.15E2,2.42E2,3.81E2,4.33E2,1.82E2,1.48E2,9.4E1,1.66E2,2.15E2,2.4E2,1.93E2,1.18E2,6.4E1,1.45E2,3E0,2.7E1,6.7E1,1.64E2,2E0,3.4E1,1.81E2,8.6E1,1.54E2,7.8E1,1.15E2,6.6E1,5.2E1,5.2E1,1.2E1,9.4E1,5.1E1,3.2E1,1.32E2,1.8E1,1.6E1,9.9E1,8.2E1,2E0,8.4E1,1.23E2,3.1E1,3.4E1,4.4E1,3E0,1.12E2,5.9E1,7E0,1.8E1,3.4E1,5.1E1,1E0,1E0,5E1,8E0,2.4E1,1.24E2,8E0,4E0,1.4E1,6E0,1E1,5.2E1,4.7E1,1E1,7.2E1,7.6E1,8E0,1.18E2,5E0,1.5E1,1.6E1,1.6E1,1.8E1,5E0,3.9E1,2E0,1E0,1.4E1,9.8E1,5.5E1,4E0,4E0,1.4E1,5E0,2.9E1,1E0,5E1],"tree_param":{"num_deleted":"0","num_feature":"21","num_nodes":"89","size_leaf_vector":"1"}},{"base_weights":[-5.7537516E-4,-8.892544E-2,7.984323E-2,-1.4317045E-1,-4.7244605E-2,3.5887875E-2,1.42904E-1,-1.7080902E-1,-1.165335E-1,-5.939126E-2,-2.8899604E-2,1.8540379E-2,6.090065E-2,1.2114742E-1,2.1681426E-1,-1.0048218E-2,-1.5799654E-1,-1.1871135E-1,-5.065057E-2,-6.8062976E-2,-2.9713899E-2,-2.533539E-2,-1.0130765E-1,-4.5263977E-3,1.991222E-2,5.5905912E-2,5.8089355E-3,9.873535E-2,1.3313356E-1,5.736501E-3,2.2835004E-1,-8.163797E-3,-1.1376046E-1,-1.2137853E-1,-6.9958776E-2,1.2793824E-3,-3.5507872E-3,-6.333893E-2,-1.14428535E-1,-6.435554E-2,-5.9930333E-3,-4.1062765E-2,-1.039186E-2,3.5562887E-4,-6.220711E-3,3.2923885E-2,1.0664125E-2,6.156759E-2,9.6551785E-3,7.6497845E-2,1.10113524E-1,1.3428183E-1,-4.3227375E-4,1.7694855E-1,2.5746238E-1,-6.3600624E-3,-2.5859189E-3,-4.3748342E-3,-6.2692747E-3,-6.6473935E-4,-4.212462E-3,-3.7025926E-3,-1.8897662E-3,-7.2801667E-3,-1.7714102E-3,-3.0755873E-5,-4.353802E-3,4.0420037E-4,-1.3304588E-3,-2.344497E-3,2.8305256E-3,2.282178E-4,-1.6636102E-3,4.498021E-3,1.3248691E-3,8.1386336E-4,-1.3050954E-3,2.5040095E-3,4.8903334E-3,-1.7217791E-3,3.8780675E-3,4.72393E-3,8.744281E-4,6.995783E-3,4.6163616E-3,6.0089524E-3,7.3798145E-3,3.7265734E-3,9.4598485E-3,1.3195227E-2,5.46837E-3],"categories":[],"categories_nodes":[],"categories_segments":[],"categories_sizes":[],"default_left":[0,0,0,0,0,0,0,0,0,0,0,0,0,0,0,0,0,0,0,0,0,0,0,0,0,0,0,0,0,0,0,0,0,0,0,0,0,0,0,0,0,0,0,0,0,0,0,0,0,0,0,0,0,0,0,0,0,0,0,0,0,0,0,0,0,0,0,0,0,0,0,0,0,0,0,0,0,0,0,0,0,0,0,0,0,0,0,0,0,0,0],"id":12,"left_children":[1,3,5,7,9,11,13,15,17,19,21,23,25,27,29,-1,31,33,35,37,39,41,43,-1,45,47,-1,49,51,-1,53,-1,55,57,59,-1,-1,61,63,65,67,69,71,-1,-1,73,75,77,79,81,83,85,-1,87,89,-1,-1,-1,-1,-1,-1,-1,-1,-1,-1,-1,-1,-1,-1,-1,-1,-1,-1,-1,-1,-1,-1,-1,-1,-1,-1,-1,-1,-1,-1,-1,-1,-1,-1,-1,-1],"loss_changes":[8.767552E0,1.3226905E0,1.7854915E0,1.6782808E-1,7.2708905E-2,1.646241E-1,3.9986277E-1,1.5771389E-2,1.3070464E-2,4.944837E-2,3.2273844E-2,3.5767406E-2,3.657645E-2,4.2462587E-2,4.328084E-2,0E0,2.677679E-3,8.152485E-3,1.1132755E-2,2.6483357E-2,3.823561E-2,3.0126207E-2,1.5916225E-2,0E0,2.6723854E-2,3.7374765E-2,0E0,1.08062625E-2,2.265048E-2,0E0,3.2256126E-2,0E0,4.2619854E-3,5.320668E-3,6.1677136E-3,0E0,0E0,3.6058962E-2,2.6858196E-2,2.7462505E-2,8.631322E-3,3.8511477E-2,2.3421692E-2,0E0,0E0,3.1705E-2,2.787247E-2,4.8803598E-2,5.3569462E-2,2.9117584E-2,1.252532E-2,6.860256E-3,0E0,1.3496757E-2,7.1310997E-4,0E0,0E0,0E0,0E0,0E0,0E0,0E0,0E0,0E0,0E0,0E0,0E0,0E0,0E0,0E0,0E0,0E0,0E0,0E0,0E0,0E0,0E0,0E0,0E0,0E0,0E0,0E0,0E0,0E0,0E0,0E0,0E0,0E0,0E0,0E0,0E0],"parents":[2147483647,0,0,1,1,2,2,3,3,4,4,5,5,6,6,7,7,8,8,9,9,10,10,11,11,12,12,13,13,14,14,16,16,17,17,18,18,19,19,20,20,21,21,22,22,24,24,25,25,27,27,28,28,30,30,32,32,33,33,34,34,37,37,38,38,39,39,40,40,41,41,42,42,45,45,46,46,47,47,48,48,49,49,50,50,51,51,53,53,54,54],"right_children":[2,4,6,8,10,12,14,16,18,20,22,24,26,28,30,-1,32,34,36,38,40,42,44,-1,46,48,-1,50,52,-1,54,-1,56,58,60,-1,-1,62,64,66,68,70,72,-1,-1,74,76,78,80,82,84,86,-1,88,90,-1,-1,-1,-1,-1,-1,-1,-1,-1,-1,-1,-1,-1,-1,-1,-1,-1,-1,-1,-1,-1,-1,-1,-1,-1,-1,-1,-1,-1,-1,-1,-1,-1,-1,-1,-1],"split_conditions":[5.993091E-1,3.8326633E-1,9.107046E-1,2.9346725E-2,1.08939745E-1,7.6889884E-1,1.189967E0,6.04343E-2,2.6596588E-1,7.6916087E-3,5.9561193E-1,7.434509E-2,1.9211717E-1,9.969708E-1,2.016E3,-1.0048218E-2,5.392199E-2,4.3321624E-2,2.6792207E-1,3.478571E-2,2.6461086E-1,5.4596496E-1,6.546487E-3,-4.5263977E-3,3E0,8.890531E-1,5.8089355E-3,6E0,2.4311587E-1,5.736501E-3,5.8334976E-1,-8.163797E-3,1.3771407E-1,5E0,9E0,1.2793824E-3,-3.5507872E-3,2.967905E-1,4.6668936E-2,5.169968E-3,1.0448567E-1,3.9619133E-2,2.017E3,3.5562887E-4,-6.220711E-3,1.09661244E-1,2.019E3,8.563372E-1,2.018E3,1.9055186E-2,1.7416347E-2,5.177892E-1,-4.3227375E-4,2.0861109E-1,4.5249447E-2,-6.3600624E-3,-2.5859189E-3,-4.3748342E-3,-6.2692747E-3,-6.6473935E-4,-4.212462E-3,-3.7025926E-3,-1.8897662E-3,-7.2801667E-3,-1.7714102E-3,-3.0755873E-5,-4.353802E-3,4.0420037E-4,-1.3304588E-3,-2.344497E-3,2.8305256E-3,2.282178E-4,-1.6636102E-3,4.498021E-3,1.3248691E-3,8.1386336E-4,-1.3050954E-3,2.5040095E-3,4.8903334E-3,-1.7217791E-3,3.8780675E-3,4.72393E-3,8.744281E-4,6.995783E-3,4.6163616E-3,6.0089524E-3,7.3798145E-3,3.7265734E-3,9.4598485E-3,1.3195227E-2,5.46837E-3],"split_indices":[10,10,10,12,12,10,10,10,0,15,10,12,12,10,20,0,15,15,0,3,0,10,3,0,18,10,0,16,12,0,0,0,0,16,16,0,0,0,3,3,12,3,20,0,0,12,20,10,20,15,3,0,0,12,3,0,0,0,0,0,0,0,0,0,0,0,0,0,0,0,0,0,0,0,0,0,0,0,0,0,0,0,0,0,0,0,0,0,0,0,0],"split_type":[0,0,0,0,0,0,0,0,0,0,0,0,0,0,0,0,0,0,0,0,0,0,0,0,0,0,0,0,0,0,0,0,0,0,0,0,0,0,0,0,0,0,0,0,0,0,0,0,0,0,0,0,0,0,0,0,0,0,0,0,0,0,0,0,0,0,0,0,0,0,0,0,0,0,0,0,0,0,0,0,0,0,0,0,0,0,0,0,0,0,0],"sum_hessian":[1.232E3,5.87E2,6.45E2,2.54E2,3.33E2,3.81E2,2.64E2,1.22E2,1.32E2,1.99E2,1.34E2,2.26E2,1.55E2,2.06E2,5.8E1,3.2E1,9E1,1.27E2,5E0,1.53E2,4.6E1,1.29E2,5E0,2E0,2.24E2,1.44E2,1.1E1,7.5E1,1.31E2,7E0,5.1E1,7.8E1,1.2E1,1.19E2,8E0,1E0,4E0,1.41E2,1.2E1,1.8E1,2.8E1,6.2E1,6.7E1,1E0,4E0,9.2E1,1.32E2,1.28E2,1.6E1,2.8E1,4.7E1,1.3E2,1E0,2.1E1,3E1,9E0,3E0,1.5E1,1.04E2,2E0,6E0,9.8E1,4.3E1,8E0,4E0,5E0,1.3E1,1.7E1,1.1E1,5.9E1,3E0,4.1E1,2.6E1,8E0,8.4E1,1.15E2,1.7E1,9.9E1,2.9E1,1E1,6E0,2.1E1,7E0,1.5E1,3.2E1,6.8E1,6.2E1,3E0,1.8E1,2.8E1,2E0],"tree_param":{"num_deleted":"0","num_feature":"21","num_nodes":"91","size_leaf_vector":"1"}},{"base_weights":[-1.555963E-3,-7.2293065E-2,8.501495E-2,-1.2908953E-1,-3.1423226E-2,5.130907E-2,1.4453615E-1,-1.6233926E-1,-1.0471642E-1,-5.3370945E-2,-1.4439566E-2,2.9144205E-2,7.4441776E-2,1.210772E-1,1.9842869E-1,-1.7951459E-1,-1.4337663E-1,-7.6926954E-2,-1.0992333E-1,-5.4718614E-2,1.792153E-2,-1.5664594E-2,6.591048E-3,1.317877E-2,4.4298686E-2,6.702967E-2,9.580876E-2,9.885886E-3,1.16312265E-1,2.0449962E-1,4.5374325E-3,-1.8194471E-1,-3.6751968E-3,-7.225588E-3,-1.8533331E-3,-3.689047E-2,-9.510067E-2,-8.453764E-2,-1.1579403E-1,-6.0140498E-2,-3.7054345E-2,-5.924866E-4,1.5897596E-3,-6.0334206E-3,-2.8983349E-2,6.4017023E-3,9.203831E-3,5.1932067E-2,-1.8713683E-2,6.922693E-2,-3.5050034E-3,1.0133866E-1,-3.4111857E-3,9.1219984E-2,1.2670963E-1,6.881027E-3,2.1437815E-1,-9.6484525E-3,-6.7150393E-3,-2.4811085E-3,6.800731E-4,-4.9617356E-3,-4.1384698E-4,2.9418865E-5,-4.531954E-3,-5.844512E-3,-1.868359E-3,-2.7124817E-3,-4.3296693E-3,-4.853143E-3,-1.3302102E-3,6.4889864E-5,-2.3759846E-3,8.717998E-4,-1.8610852E-3,1.8569401E-3,-4.2099398E-4,-1.4963073E-3,2.8171954E-3,-2.1982153E-3,3.163804E-3,2.5007857E-3,3.9575966E-3,2.1306255E-3,-1.2843754E-3,4.344466E-3,8.67766E-3,1.9151618E-3,4.928364E-3,6.9769435E-3,5.320459E-3,1.1702612E-2,7.840165E-3],"categories":[],"categories_nodes":[],"categories_segments":[],"categories_sizes":[],"default_left":[0,0,0,0,0,0,0,0,0,0,0,0,0,0,0,0,0,0,0,0,0,0,0,0,0,0,0,0,0,0,0,0,0,0,0,0,0,0,0,0,0,0,0,0,0,0,0,0,0,0,0,0,0,0,0,0,0,0,0,0,0,0,0,0,0,0,0,0,0,0,0,0,0,0,0,0,0,0,0,0,0,0,0,0,0,0,0,0,0,0,0,0,0],"id":13,"left_children":[1,3,5,7,9,11,13,15,17,19,21,23,25,27,29,31,33,35,37,39,41,43,-1,45,47,49,51,-1,53,55,-1,57,-1,-1,-1,59,61,63,65,67,69,-1,-1,71,73,-1,75,77,79,81,83,85,-1,87,89,-1,91,-1,-1,-1,-1,-1,-1,-1,-1,-1,-1,-1,-1,-1,-1,-1,-1,-1,-1,-1,-1,-1,-1,-1,-1,-1,-1,-1,-1,-1,-1,-1,-1,-1,-1,-1,-1],"loss_changes":[7.6669884E0,1.5952942E0,1.1220827E0,2.163949E-1,1.4907587E-1,1.8292725E-1,2.3262072E-1,1.3344765E-2,1.5997887E-2,1.779443E-2,4.2916436E-2,4.441853E-2,2.145183E-2,2.9589891E-2,2.0664692E-2,1.8260479E-3,2.1253824E-3,1.8320039E-2,1.1075377E-2,1.4244556E-2,2.02891E-3,2.894361E-2,0E0,4.0823527E-2,4.6666563E-2,2.101034E-2,4.5918345E-2,0E0,2.44447E-2,7.494688E-3,0E0,4.0227175E-3,0E0,0E0,0E0,7.7462634E-3,6.3572973E-3,1.5635073E-2,5.1751137E-3,1.5560269E-2,2.4382904E-2,0E0,0E0,4.0512938E-2,3.697882E-2,0E0,4.4621307E-2,3.23835E-2,2.5555108E-2,2.0828485E-2,6.2096184E-3,2.8745085E-2,0E0,1.33315325E-2,9.893537E-3,0E0,1.6538382E-2,0E0,0E0,0E0,0E0,0E0,0E0,0E0,0E0,0E0,0E0,0E0,0E0,0E0,0E0,0E0,0E0,0E0,0E0,0E0,0E0,0E0,0E0,0E0,0E0,0E0,0E0,0E0,0E0,0E0,0E0,0E0,0E0,0E0,0E0,0E0,0E0],"parents":[2147483647,0,0,1,1,2,2,3,3,4,4,5,5,6,6,7,7,8,8,9,9,10,10,11,11,12,12,13,13,14,14,15,15,16,16,17,17,18,18,19,19,20,20,21,21,23,23,24,24,25,25,26,26,28,28,29,29,31,31,35,35,36,36,37,37,38,38,39,39,40,40,43,43,44,44,46,46,47,47,48,48,49,49,50,50,51,51,53,53,54,54,56,56],"right_children":[2,4,6,8,10,12,14,16,18,20,22,24,26,28,30,32,34,36,38,40,42,44,-1,46,48,50,52,-1,54,56,-1,58,-1,-1,-1,60,62,64,66,68,70,-1,-1,72,74,-1,76,78,80,82,84,86,-1,88,90,-1,92,-1,-1,-1,-1,-1,-1,-1,-1,-1,-1,-1,-1,-1,-1,-1,-1,-1,-1,-1,-1,-1,-1,-1,-1,-1,-1,-1,-1,-1,-1,-1,-1,-1,-1,-1,-1],"split_conditions":[3.622849E-1,3.9709455E-1,9.795358E-1,2.9346725E-2,5.081693E-1,8.0394936E-1,1.189967E0,6.895002E-3,5E0,3.1E1,5.5123426E-2,1.2E2,6.16185E-3,4.630223E-1,2.6025556E-2,7.140088E-2,2.7E2,1.0259266E-2,1.48E2,4.450768E-3,4.2309454E-3,2.018E3,6.591048E-3,3.6316255E-1,4.12137E-2,4.690256E-3,9.7642267E-1,9.885886E-3,1.8822698E-1,2.016E3,4.5374325E-3,2.37E2,-3.6751968E-3,-7.225588E-3,-1.8533331E-3,2.47E2,3.843672E-2,6.546487E-3,5.4734103E-2,6E0,2.4498573E-1,-5.924866E-4,1.5897596E-3,6E0,5.2E1,6.4017023E-3,4.4E1,1.4593694E-3,5.4954655E-2,1.590299E-1,4.0927786E-1,2.8995387E-2,-3.4111857E-3,4.724672E-1,3.18E2,6.881027E-3,3.644199E-2,-9.6484525E-3,-6.7150393E-3,-2.4811085E-3,6.800731E-4,-4.9617356E-3,-4.1384698E-4,2.9418865E-5,-4.531954E-3,-5.844512E-3,-1.868359E-3,-2.7124817E-3,-4.3296693E-3,-4.853143E-3,-1.3302102E-3,6.4889864E-5,-2.3759846E-3,8.717998E-4,-1.8610852E-3,1.8569401E-3,-4.2099398E-4,-1.4963073E-3,2.8171954E-3,-2.1982153E-3,3.163804E-3,2.5007857E-3,3.9575966E-3,2.1306255E-3,-1.2843754E-3,4.344466E-3,8.67766E-3,1.9151618E-3,4.928364E-3,6.9769435E-3,5.320459E-3,1.1702612E-2,7.840165E-3],"split_indices":[0,10,10,12,10,10,10,12,17,17,15,19,15,0,15,15,19,3,19,15,3,20,0,0,3,15,10,0,12,20,0,19,0,0,0,19,15,3,15,18,0,0,0,18,19,0,19,3,3,12,0,3,0,0,19,0,3,0,0,0,0,0,0,0,0,0,0,0,0,0,0,0,0,0,0,0,0,0,0,0,0,0,0,0,0,0,0,0,0,0,0,0,0],"split_type":[0,0,0,0,0,0,0,0,0,0,0,0,0,0,0,0,0,0,0,0,0,0,0,0,0,0,0,0,0,0,0,0,0,0,0,0,0,0,0,0,0,0,0,0,0,0,0,0,0,0,0,0,0,0,0,0,0,0,0,0,0,0,0,0,0,0,0,0,0,0,0,0,0,0,0,0,0,0,0,0,0,0,0,0,0,0,0,0,0,0,0,0,0],"sum_hessian":[1.25E3,6.88E2,5.62E2,2.87E2,4.01E2,3.6E2,2.02E2,1.19E2,1.68E2,1.74E2,2.27E2,1.85E2,1.75E2,1.43E2,5.9E1,5.8E1,6.1E1,2.9E1,1.39E2,1.71E2,3E0,2.26E2,1E0,9.1E1,9.4E1,1.33E2,4.2E1,6E0,1.37E2,5.5E1,4E0,5.6E1,2E0,6E1,1E0,1E1,1.9E1,2.9E1,1.1E2,1.29E2,4.2E1,1E0,2E0,1.32E2,9.4E1,2E0,8.9E1,8.4E1,1E1,1.29E2,4E0,4.1E1,1E0,4.3E1,9.4E1,9E0,4.6E1,4.3E1,1.3E1,8E0,2E0,1.8E1,1E0,2E0,2.7E1,1.08E2,2E0,1.08E2,2.1E1,5E0,3.7E1,1.13E2,1.9E1,1.4E1,8E1,3.4E1,5.5E1,4E0,8E1,8E0,2E0,4.6E1,8.3E1,1E0,3E0,3.6E1,5E0,6E0,3.7E1,5.4E1,4E1,3.2E1,1.4E1],"tree_param":{"num_deleted":"0","num_feature":"21","num_nodes":"93","size_leaf_vector":"1"}},{"base_weights":[7.363045E-4,-7.7719994E-2,7.2480574E-2,-1.2470543E-1,-3.851865E-2,3.5554774E-2,1.2889232E-1,-1.6061896E-1,-1.0675415E-1,-5.7902273E-2,-2.6716981E-2,1.728287E-2,6.344365E-2,1.0664951E-1,1.8258132E-1,-7.1809962E-3,-9.144667E-3,-1.15672074E-1,-8.532441E-2,-4.733594E-2,-8.354741E-2,-5.6150913E-2,-1.9330021E-2,3.8187165E-2,1.0451024E-2,7.151608E-2,2.6182618E-2,9.121176E-2,1.20760225E-1,1.154713E-1,1.9654858E-1,-1.1907725E-1,-7.717537E-2,-5.3600654E-2,-9.537811E-2,1.460054E-2,-5.0459113E-2,-2.1023596E-2,-9.118314E-2,2.3814067E-3,-6.0033146E-2,2.2184104E-3,-2.8611526E-2,5.3580735E-2,6.2603443E-3,1.2932007E-2,-4.450661E-2,5.9142355E-2,8.691915E-2,-6.66233E-2,3.945343E-2,9.6718684E-2,3.6933776E-2,1.0912615E-2,1.15021706E-1,1.2530348E-1,-5.5447745E-4,5.6709736E-3,2.0381944E-1,-4.986498E-3,-6.274469E-3,-4.4544954E-3,-3.8818072E-4,-1.9170732E-4,-3.493499E-3,-3.3876535E-3,-5.3385436E-3,-1.3899952E-3,2.606707E-3,-5.7302776E-4,-2.7787157E-3,-5.356297E-5,-1.2871933E-3,-5.0011254E-3,-1.9577628E-3,-5.0711236E-3,-2.113182E-3,1.0295655E-3,-1.9055478E-3,-5.667728E-4,-2.1985534E-3,2.1266816E-3,5.3625437E-3,-1.9258297E-3,2.3198766E-3,5.3984247E-4,6.516268E-3,-3.278479E-4,-2.8031834E-3,6.1434176E-4,3.6039613E-3,5.3097294E-3,2.7027566E-3,-4.4959295E-3,8.156374E-5,2.6155799E-3,6.824601E-4,8.9109485E-4,5.0268094E-3,3.6047783E-3,-6.323564E-4,3.7369763E-3,6.1747367E-3,6.862922E-3,3.0550733E-3,1.1484536E-2,8.004386E-3],"categories":[],"categories_nodes":[],"categories_segments":[],"categories_sizes":[],"default_left":[0,0,0,0,0,0,0,0,0,0,0,0,0,0,0,0,0,0,0,0,0,0,0,0,0,0,0,0,0,0,0,0,0,0,0,0,0,0,0,0,0,0,0,0,0,0,0,0,0,0,0,0,0,0,0,0,0,0,0,0,0,0,0,0,0,0,0,0,0,0,0,0,0,0,0,0,0,0,0,0,0,0,0,0,0,0,0,0,0,0,0,0,0,0,0,0,0,0,0,0,0,0,0,0,0,0,0],"id":14,"left_children":[1,3,5,7,9,11,13,15,17,19,21,23,25,27,29,-1,-1,31,33,35,37,39,41,43,45,47,49,51,53,55,57,59,61,63,65,67,69,71,73,-1,75,77,79,81,83,85,87,89,91,93,95,97,99,-1,101,103,-1,-1,105,-1,-1,-1,-1,-1,-1,-1,-1,-1,-1,-1,-1,-1,-1,-1,-1,-1,-1,-1,-1,-1,-1,-1,-1,-1,-1,-1,-1,-1,-1,-1,-1,-1,-1,-1,-1,-1,-1,-1,-1,-1,-1,-1,-1,-1,-1,-1,-1],"loss_changes":[6.9290447E0,1.0782292E0,1.3348174E0,1.5498686E-1,7.2113484E-2,1.9764087E-1,2.8385305E-1,6.6747665E-3,2.4721146E-2,2.883321E-2,4.2834893E-2,3.3448033E-2,4.4448674E-2,2.8631449E-2,4.5730114E-2,0E0,0E0,7.1960688E-3,1.3067305E-2,1.7759293E-2,1.4315084E-2,1.8975064E-2,3.2663785E-2,2.8169692E-2,2.5118371E-2,1.8874168E-2,3.8345203E-2,2.3628235E-2,2.636671E-2,2.0055085E-2,1.2543917E-2,1.5034676E-3,1.0059446E-2,1.2686789E-2,5.9843957E-3,9.406529E-3,1.6119868E-2,4.4332352E-4,9.880409E-3,0E0,2.4396747E-2,3.7833128E-2,2.9751748E-2,1.8561319E-2,3.7731476E-2,4.1955933E-2,3.1410828E-3,4.3364346E-2,2.846694E-2,6.5067206E-3,7.912662E-3,2.2905707E-2,1.8345335E-2,0E0,2.1146774E-2,2.3587644E-3,0E0,0E0,2.3193121E-2,0E0,0E0,0E0,0E0,0E0,0E0,0E0,0E0,0E0,0E0,0E0,0E0,0E0,0E0,0E0,0E0,0E0,0E0,0E0,0E0,0E0,0E0,0E0,0E0,0E0,0E0,0E0,0E0,0E0,0E0,0E0,0E0,0E0,0E0,0E0,0E0,0E0,0E0,0E0,0E0,0E0,0E0,0E0,0E0,0E0,0E0,0E0,0E0],"parents":[2147483647,0,0,1,1,2,2,3,3,4,4,5,5,6,6,7,7,8,8,9,9,10,10,11,11,12,12,13,13,14,14,17,17,18,18,19,19,20,20,21,21,22,22,23,23,24,24,25,25,26,26,27,27,28,28,29,29,30,30,31,31,32,32,33,33,34,34,35,35,36,36,37,37,38,38,40,40,41,41,42,42,43,43,44,44,45,45,46,46,47,47,48,48,49,49,50,50,51,51,52,52,54,54,55,55,58,58],"right_children":[2,4,6,8,10,12,14,16,18,20,22,24,26,28,30,-1,-1,32,34,36,38,40,42,44,46,48,50,52,54,56,58,60,62,64,66,68,70,72,74,-1,76,78,80,82,84,86,88,90,92,94,96,98,100,-1,102,104,-1,-1,106,-1,-1,-1,-1,-1,-1,-1,-1,-1,-1,-1,-1,-1,-1,-1,-1,-1,-1,-1,-1,-1,-1,-1,-1,-1,-1,-1,-1,-1,-1,-1,-1,-1,-1,-1,-1,-1,-1,-1,-1,-1,-1,-1,-1,-1,-1,-1,-1],"split_conditions":[5.993091E-1,3.9709455E-1,9.229194E-1,1.5477403E-1,4.7500828E-1,7.6889884E-1,1.1698035E0,3.4976766E-2,3.4950832E-1,5E0,7.8E1,2.016E3,4.080583E-2,1.026641E0,2.016E3,-7.1809962E-3,-9.144667E-3,2.8E1,1.0259266E-2,3E0,6.142267E-2,6.384976E-3,1.1E1,1.8334681E-2,5.446925E-2,2.77E2,4.224729E-2,3.46E2,4.61567E-1,3.43E2,2.0395939E-1,9E0,1.2324862E-3,5E0,2.4498573E-1,4.510838E-1,2.5758764E-1,1.1284994E-2,4.597166E-1,2.3814067E-3,1.5231006E-2,2.018E3,1.44E2,1.4872999E-2,1.7E1,5.2179284E-2,3E0,8.0394936E-1,2.1E1,8.563372E-1,1.4748307E-1,2E0,1.7546703E-1,1.0912615E-2,1.7828529E-1,1.2779744E0,-5.5447745E-4,5.6709736E-3,2E1,-4.986498E-3,-6.274469E-3,-4.4544954E-3,-3.8818072E-4,-1.9170732E-4,-3.493499E-3,-3.3876535E-3,-5.3385436E-3,-1.3899952E-3,2.606707E-3,-5.7302776E-4,-2.7787157E-3,-5.356297E-5,-1.2871933E-3,-5.0011254E-3,-1.9577628E-3,-5.0711236E-3,-2.113182E-3,1.0295655E-3,-1.9055478E-3,-5.667728E-4,-2.1985534E-3,2.1266816E-3,5.3625437E-3,-1.9258297E-3,2.3198766E-3,5.3984247E-4,6.516268E-3,-3.278479E-4,-2.8031834E-3,6.1434176E-4,3.6039613E-3,5.3097294E-3,2.7027566E-3,-4.4959295E-3,8.156374E-5,2.6155799E-3,6.824601E-4,8.9109485E-4,5.0268094E-3,3.6047783E-3,-6.323564E-4,3.7369763E-3,6.1747367E-3,6.862922E-3,3.0550733E-3,1.1484536E-2,8.004386E-3],"split_indices":[10,10,10,0,10,10,10,14,10,18,19,20,3,10,20,0,0,17,3,17,12,3,17,3,3,19,3,19,0,19,12,17,14,17,0,10,0,3,10,0,3,20,19,3,17,3,18,10,17,10,12,17,12,0,12,10,0,0,17,0,0,0,0,0,0,0,0,0,0,0,0,0,0,0,0,0,0,0,0,0,0,0,0,0,0,0,0,0,0,0,0,0,0,0,0,0,0,0,0,0,0,0,0,0,0,0,0],"split_type":[0,0,0,0,0,0,0,0,0,0,0,0,0,0,0,0,0,0,0,0,0,0,0,0,0,0,0,0,0,0,0,0,0,0,0,0,0,0,0,0,0,0,0,0,0,0,0,0,0,0,0,0,0,0,0,0,0,0,0,0,0,0,0,0,0,0,0,0,0,0,0,0,0,0,0,0,0,0,0,0,0,0,0,0,0,0,0,0,0,0,0,0,0,0,0,0,0,0,0,0,0,0,0,0,0,0,0],"sum_hessian":[1.229E3,5.87E2,6.42E2,2.66E2,3.21E2,3.89E2,2.53E2,8.6E1,1.8E2,1.2E2,2.01E2,2.36E2,1.53E2,1.81E2,7.2E1,5.3E1,3.3E1,1.24E2,5.6E1,8.7E1,3.3E1,3.9E1,1.62E2,5.7E1,1.79E2,1.25E2,2.8E1,9E1,9.1E1,1.4E1,5.8E1,1.12E2,1.2E1,1.5E1,4.1E1,4E0,8.3E1,4E0,2.9E1,1E0,3.8E1,4.9E1,1.13E2,3.8E1,1.9E1,1.72E2,7E0,7.2E1,5.3E1,3E0,2.5E1,8.1E1,9E0,3E0,8.8E1,1.3E1,1E0,6E0,5.2E1,3.2E1,8E1,1E1,2E0,4E0,1.1E1,1.4E1,2.7E1,2E0,2E0,1E1,7.3E1,1E0,3E0,2.4E1,5E0,1E1,2.8E1,3.4E1,1.5E1,5.4E1,5.9E1,3.3E1,5E0,9E0,1E1,1.7E2,2E0,2E0,5E0,1.6E1,5.6E1,3.2E1,2.1E1,2E0,1E0,1.6E1,9E0,4E0,7.7E1,5E0,4E0,1.7E1,7.1E1,1E1,3E0,3E1,2.2E1],"tree_param":{"num_deleted":"0","num_feature":"21","num_nodes":"107","size_leaf_vector":"1"}},{"base_weights":[-1.4782149E-3,-7.045437E-2,7.148415E-2,-1.1956016E-1,-3.3933125E-2,3.3916887E-2,1.2134705E-1,-1.4291354E-1,-9.315487E-2,-4.9484752E-2,-1.6027903E-2,1.9365279E-2,6.387893E-2,9.959261E-2,1.7270525E-1,-8.970526E-3,-6.560491E-3,-6.385504E-2,-9.696401E-2,-6.0487494E-2,-3.751814E-2,-6.7865867E-3,-5.227119E-2,-4.515189E-3,2.1172654E-2,5.6151576E-2,5.2106357E-3,9.67087E-2,7.955538E-3,9.595581E-2,1.8288009E-1,-1.9531513E-2,-7.5123794E-2,-1.047863E-1,-7.364482E-2,-8.0386154E-2,-5.0526854E-2,-3.186703E-2,-1.0562284E-1,-8.506868E-3,5.765304E-3,-2.7021503E-2,-7.4616924E-2,4.3251462E-2,1.356448E-2,7.498121E-2,3.2726645E-2,9.1750264E-2,1.2964599E-1,5.3856927E-3,-5.406149E-4,1.9897595E-1,1.24781646E-1,-1.2780533E-3,-3.495728E-4,-4.2732134E-3,-1.970904E-3,-5.3305957E-3,-2.1038724E-3,-1.7282168E-3,-4.768245E-3,-4.258202E-3,-2.9059948E-4,1.1995454E-4,-2.8222797E-3,1.8365284E-4,-1.9188283E-3,-5.8097104E-3,-1.0548666E-3,2.7019808E-3,-5.87964E-4,-3.242477E-3,4.8629404E-4,-4.407942E-3,-2.5902764E-4,1.595409E-3,4.4924333E-3,-3.2444793E-4,1.250231E-3,1.3314923E-3,4.5827646E-3,7.012381E-4,3.1352378E-3,5.6849676E-3,4.104439E-3,5.908959E-4,6.747325E-3,7.2112675E-3,1.1682483E-2,7.0396825E-3,1.8772095E-3],"categories":[],"categories_nodes":[],"categories_segments":[],"categories_sizes":[],"default_left":[0,0,0,0,0,0,0,0,0,0,0,0,0,0,0,0,0,0,0,0,0,0,0,0,0,0,0,0,0,0,0,0,0,0,0,0,0,0,0,0,0,0,0,0,0,0,0,0,0,0,0,0,0,0,0,0,0,0,0,0,0,0,0,0,0,0,0,0,0,0,0,0,0,0,0,0,0,0,0,0,0,0,0,0,0,0,0,0,0,0,0],"id":15,"left_children":[1,3,5,7,9,11,13,15,17,19,21,23,25,27,29,-1,-1,31,33,35,37,39,41,-1,43,45,-1,47,-1,49,51,53,55,57,59,61,63,65,67,69,-1,71,73,75,77,79,81,83,85,-1,-1,87,89,-1,-1,-1,-1,-1,-1,-1,-1,-1,-1,-1,-1,-1,-1,-1,-1,-1,-1,-1,-1,-1,-1,-1,-1,-1,-1,-1,-1,-1,-1,-1,-1,-1,-1,-1,-1,-1,-1],"loss_changes":[6.275734E0,1.1455154E0,1.1310515E0,1.5503287E-1,1.01956874E-1,1.500535E-1,2.7328944E-1,3.7542343E-2,8.428931E-3,2.3668736E-2,5.7589132E-2,4.8492044E-2,2.9367387E-2,1.6366959E-2,4.1800976E-2,0E0,0E0,7.523194E-3,1.3077736E-2,1.5956879E-2,3.396623E-2,3.0175576E-2,1.7731532E-2,0E0,3.8384542E-2,4.0331155E-2,0E0,1.7338753E-2,0E0,1.49738565E-2,3.6890745E-2,1.9934564E-4,1.8001571E-3,5.016148E-3,2.386637E-2,1.090683E-2,2.206327E-2,2.1193765E-2,3.8034618E-3,2.8708393E-2,0E0,2.5652181E-2,1.6468704E-2,2.8318428E-2,4.0080313E-2,4.0288597E-2,2.4349704E-2,2.4384141E-2,1.1520714E-2,0E0,0E0,6.1222315E-2,1.8460423E-2,0E0,0E0,0E0,0E0,0E0,0E0,0E0,0E0,0E0,0E0,0E0,0E0,0E0,0E0,0E0,0E0,0E0,0E0,0E0,0E0,0E0,0E0,0E0,0E0,0E0,0E0,0E0,0E0,0E0,0E0,0E0,0E0,0E0,0E0,0E0,0E0,0E0,0E0],"parents":[2147483647,0,0,1,1,2,2,3,3,4,4,5,5,6,6,7,7,8,8,9,9,10,10,11,11,12,12,13,13,14,14,17,17,18,18,19,19,20,20,21,21,22,22,24,24,25,25,27,27,29,29,30,30,31,31,32,32,33,33,34,34,35,35,36,36,37,37,38,38,39,39,41,41,42,42,43,43,44,44,45,45,46,46,47,47,48,48,51,51,52,52],"right_children":[2,4,6,8,10,12,14,16,18,20,22,24,26,28,30,-1,-1,32,34,36,38,40,42,-1,44,46,-1,48,-1,50,52,54,56,58,60,62,64,66,68,70,-1,72,74,76,78,80,82,84,86,-1,-1,88,90,-1,-1,-1,-1,-1,-1,-1,-1,-1,-1,-1,-1,-1,-1,-1,-1,-1,-1,-1,-1,-1,-1,-1,-1,-1,-1,-1,-1,-1,-1,-1,-1,-1,-1,-1,-1,-1,-1],"split_conditions":[6.2408566E-1,3.9709455E-1,9.107046E-1,1.961114E-1,5.102397E-1,8.0394936E-1,1.1698035E0,6.04343E-2,1.04E2,4.597166E-1,2.019E3,9.066322E-2,1.8710181E-1,2.3033825E-1,2.016E3,-8.970526E-3,-6.560491E-3,3.1171748E-1,7.703345E-2,1.04E2,1.2045609E-1,3.8092157E-1,1.174139E-2,-4.515189E-3,2.016E3,4.359187E-1,5.2106357E-3,3.5E2,7.955538E-3,3.44E2,4.020486E-2,8.4E1,9.2E1,2.77E2,1.97E2,1.1288393E-1,4.024048E-1,3.7673935E-3,3.317525E-1,5.6E1,5.765304E-3,9.959588E-3,2.5569607E-2,1.672986E-1,1.35095585E-2,2.017E3,3.11E2,1.7719044E-1,9.369116E-1,5.3856927E-3,-5.406149E-4,6E0,3.44E2,-1.2780533E-3,-3.495728E-4,-4.2732134E-3,-1.970904E-3,-5.3305957E-3,-2.1038724E-3,-1.7282168E-3,-4.768245E-3,-4.258202E-3,-2.9059948E-4,1.1995454E-4,-2.8222797E-3,1.8365284E-4,-1.9188283E-3,-5.8097104E-3,-1.0548666E-3,2.7019808E-3,-5.87964E-4,-3.242477E-3,4.8629404E-4,-4.407942E-3,-2.5902764E-4,1.595409E-3,4.4924333E-3,-3.2444793E-4,1.250231E-3,1.3314923E-3,4.5827646E-3,7.012381E-4,3.1352378E-3,5.6849676E-3,4.104439E-3,5.908959E-4,6.747325E-3,7.2112675E-3,1.1682483E-2,7.0396825E-3,1.8772095E-3],"split_indices":[10,10,10,0,10,10,10,10,19,10,20,12,12,12,20,0,0,10,12,19,12,0,3,0,20,0,0,19,0,19,3,19,19,19,19,12,10,3,0,19,0,3,3,12,3,20,19,12,10,0,0,16,19,0,0,0,0,0,0,0,0,0,0,0,0,0,0,0,0,0,0,0,0,0,0,0,0,0,0,0,0,0,0,0,0,0,0,0,0,0,0],"split_type":[0,0,0,0,0,0,0,0,0,0,0,0,0,0,0,0,0,0,0,0,0,0,0,0,0,0,0,0,0,0,0,0,0,0,0,0,0,0,0,0,0,0,0,0,0,0,0,0,0,0,0,0,0,0,0,0,0,0,0,0,0,0,0,0,0,0,0,0,0,0,0,0,0,0,0,0,0,0,0,0,0,0,0,0,0,0,0,0,0,0,0],"sum_hessian":[1.245E3,6.4E2,6.05E2,2.72E2,3.68E2,3.46E2,2.59E2,1.42E2,1.3E2,1.96E2,1.72E2,2.34E2,1.12E2,1.84E2,7.5E1,3.1E1,1.11E2,1.7E1,1.13E2,1E2,9.6E1,1.38E2,3.4E1,3E0,2.31E2,9.6E1,1.6E1,1.78E2,6E0,1E1,6.5E1,4E0,1.3E1,8.2E1,3.1E1,3.1E1,6.9E1,9E1,6E0,1.37E2,1E0,1.7E1,1.7E1,5.8E1,1.73E2,5.2E1,4.4E1,1.58E2,2E1,9E0,1E0,4.9E1,1.6E1,2E0,2E0,9E0,4E0,7.9E1,3E0,1.2E1,1.9E1,2.9E1,2E0,7E0,6.2E1,1.4E1,7.6E1,5E0,1E0,6E0,1.31E2,8E0,9E0,1.4E1,3E0,4.8E1,1E1,6.3E1,1.1E2,1.4E1,3.8E1,2.8E1,1.6E1,4.5E1,1.13E2,1E0,1.9E1,2.1E1,2.8E1,1.3E1,3E0],"tree_param":{"num_deleted":"0","num_feature":"21","num_nodes":"91","size_leaf_vector":"1"}},{"base_weights":[3.4930353E-4,-7.2491914E-2,6.513381E-2,-1.2021926E-1,-4.114703E-2,3.4559593E-2,1.1910962E-1,-7.453879E-3,-1.0657675E-1,-5.7636615E-2,-2.3847707E-2,1.7375113E-2,5.845875E-2,1.0501383E-1,1.8138282E-1,-1.14676945E-1,-8.717482E-2,-5.4031476E-2,-1.2794253E-1,-6.084391E-2,-1.4692573E-2,1.638968E-2,6.4208875E-3,6.4319715E-2,3.420506E-2,1.0180724E-1,1.0293084E-2,9.450158E-2,2.0558004E-1,-1.1745065E-1,-5.7481423E-2,-8.870217E-2,-2.7017595E-4,-6.475344E-2,-4.175427E-2,-1.4586952E-1,-6.134063E-5,-6.679758E-2,1.1471584E-3,-2.2252273E-2,2.6866376E-2,-3.1437058E-4,2.3705738E-2,5.767741E-2,8.3907805E-2,4.0694267E-2,-4.8229303E-3,8.381633E-2,1.14129566E-1,1.039947E-1,1.726084E-3,1.2612142E-1,2.2681119E-1,-6.004775E-3,-3.5515532E-3,-6.171902E-4,-3.6533854E-3,-3.2500362E-3,-4.763647E-3,-2.6850912E-3,-4.307408E-3,4.3123728E-4,-2.2895958E-3,-7.837893E-3,-2.0134877E-3,-2.451769E-3,-4.615748E-3,5.702377E-4,-1.8493955E-3,2.3665784E-3,-1.21250596E-4,1.9544435E-3,-3.8487834E-4,2.2411342E-3,7.228206E-4,2.106679E-3,3.6359776E-3,2.8081543E-3,6.38904E-3,2.1972023E-3,-1.7449551E-3,3.1070942E-3,5.076267E-3,3.6889822E-3,5.9388336E-3,5.9739067E-3,2.7385436E-3,8.265098E-3,3.085831E-3,1.24930525E-2,5.8009042E-3],"categories":[],"categories_nodes":[],"categories_segments":[],"categories_sizes":[],"default_left":[0,0,0,0,0,0,0,0,0,0,0,0,0,0,0,0,0,0,0,0,0,0,0,0,0,0,0,0,0,0,0,0,0,0,0,0,0,0,0,0,0,0,0,0,0,0,0,0,0,0,0,0,0,0,0,0,0,0,0,0,0,0,0,0,0,0,0,0,0,0,0,0,0,0,0,0,0,0,0,0,0,0,0,0,0,0,0,0,0,0,0],"id":16,"left_children":[1,3,5,7,9,11,13,-1,15,17,19,21,23,25,27,29,31,33,35,37,39,41,-1,43,45,47,-1,49,51,53,55,57,-1,59,61,63,-1,65,-1,67,69,71,73,75,77,79,-1,81,83,85,-1,87,89,-1,-1,-1,-1,-1,-1,-1,-1,-1,-1,-1,-1,-1,-1,-1,-1,-1,-1,-1,-1,-1,-1,-1,-1,-1,-1,-1,-1,-1,-1,-1,-1,-1,-1,-1,-1,-1,-1],"loss_changes":[5.8043513E0,8.6124206E-1,1.0702083E0,7.426906E-2,9.875131E-2,1.7024392E-1,1.8723273E-1,0E0,1.4991522E-2,3.8456857E-2,5.7702042E-2,2.4595007E-2,2.2534013E-2,4.1777372E-2,6.88684E-2,1.0540843E-2,5.89025E-3,1.9937634E-2,1.7994106E-2,1.849313E-2,4.4582084E-2,2.9703952E-2,0E0,1.3245761E-2,3.4449846E-2,3.2555103E-2,0E0,2.6732832E-3,2.5378227E-2,4.1151047E-3,4.022762E-3,1.5940368E-3,0E0,1.6653836E-2,1.7278194E-2,1.7360449E-3,0E0,9.977117E-3,0E0,5.9440807E-2,1.3302766E-2,2.2120027E-2,3.2360688E-2,2.195397E-2,3.2992467E-2,1.0131769E-2,0E0,2.4781466E-2,1.1862993E-2,3.1545758E-4,0E0,1.25088245E-2,3.2302022E-2,0E0,0E0,0E0,0E0,0E0,0E0,0E0,0E0,0E0,0E0,0E0,0E0,0E0,0E0,0E0,0E0,0E0,0E0,0E0,0E0,0E0,0E0,0E0,0E0,0E0,0E0,0E0,0E0,0E0,0E0,0E0,0E0,0E0,0E0,0E0,0E0,0E0,0E0],"parents":[2147483647,0,0,1,1,2,2,3,3,4,4,5,5,6,6,8,8,9,9,10,10,11,11,12,12,13,13,14,14,15,15,16,16,17,17,18,18,19,19,20,20,21,21,23,23,24,24,25,25,27,27,28,28,29,29,30,30,31,31,33,33,34,34,35,35,37,37,39,39,40,40,41,41,42,42,43,43,44,44,45,45,47,47,48,48,49,49,51,51,52,52],"right_children":[2,4,6,8,10,12,14,-1,16,18,20,22,24,26,28,30,32,34,36,38,40,42,-1,44,46,48,-1,50,52,54,56,58,-1,60,62,64,-1,66,-1,68,70,72,74,76,78,80,-1,82,84,86,-1,88,90,-1,-1,-1,-1,-1,-1,-1,-1,-1,-1,-1,-1,-1,-1,-1,-1,-1,-1,-1,-1,-1,-1,-1,-1,-1,-1,-1,-1,-1,-1,-1,-1,-1,-1,-1,-1,-1,-1],"split_conditions":[5.993091E-1,3.5513875E-1,9.4769955E-1,1.4185181E-1,4.7820392E-1,7.6889884E-1,5.8334976E-1,-7.453879E-3,2.243156E-1,3.644199E-2,7.9E1,5.5123426E-2,4.1704442E-2,5.0732583E-2,2.016E3,3E1,4.5428425E-4,4.2578486E-1,4.427374E-2,2.7E1,1.8844793E-2,3.55774E-1,6.4208875E-3,2.7869772E-2,2.019E3,1.0431826E0,1.0293084E-2,1.5126426E-2,2E0,2.67E2,1.9604713E-4,3.1584814E-1,-2.7017595E-4,2.2E1,3E0,3.1083122E-1,-6.134063E-5,4E0,1.1471584E-3,1.06E2,2.9351015E-2,3.317525E-1,2.016E3,1.47E2,4E0,3E1,-4.8229303E-3,1.7E1,2.016E3,1.2823108E0,1.726084E-3,7E0,4.020486E-2,-6.004775E-3,-3.5515532E-3,-6.171902E-4,-3.6533854E-3,-3.2500362E-3,-4.763647E-3,-2.6850912E-3,-4.307408E-3,4.3123728E-4,-2.2895958E-3,-7.837893E-3,-2.0134877E-3,-2.451769E-3,-4.615748E-3,5.702377E-4,-1.8493955E-3,2.3665784E-3,-1.21250596E-4,1.9544435E-3,-3.8487834E-4,2.2411342E-3,7.228206E-4,2.106679E-3,3.6359776E-3,2.8081543E-3,6.38904E-3,2.1972023E-3,-1.7449551E-3,3.1070942E-3,5.076267E-3,3.6889822E-3,5.9388336E-3,5.9739067E-3,2.7385436E-3,8.265098E-3,3.085831E-3,1.24930525E-2,5.8009042E-3],"split_indices":[10,10,10,10,10,10,0,0,0,3,19,15,3,15,20,17,14,10,3,17,15,0,0,3,20,10,0,3,16,19,3,10,0,17,17,0,0,18,0,19,15,0,20,19,18,17,0,17,20,10,0,17,3,0,0,0,0,0,0,0,0,0,0,0,0,0,0,0,0,0,0,0,0,0,0,0,0,0,0,0,0,0,0,0,0,0,0,0,0,0,0],"split_type":[0,0,0,0,0,0,0,0,0,0,0,0,0,0,0,0,0,0,0,0,0,0,0,0,0,0,0,0,0,0,0,0,0,0,0,0,0,0,0,0,0,0,0,0,0,0,0,0,0,0,0,0,0,0,0,0,0,0,0,0,0,0,0,0,0,0,0,0,0,0,0,0,0,0,0,0,0,0,0,0,0,0,0,0,0,0,0,0,0,0,0],"sum_hessian":[1.228E3,5.78E2,6.5E2,2.28E2,3.5E2,4.16E2,2.34E2,7E1,1.58E2,1.78E2,1.72E2,2.43E2,1.73E2,1.93E2,4.1E1,1.08E2,5E1,1.71E2,7E0,3.3E1,1.39E2,2.42E2,1E0,1.38E2,3.5E1,1.89E2,4E0,1E1,3.1E1,1.02E2,6E0,4.9E1,1E0,8.9E1,8.2E1,6E0,1E0,3.1E1,2E0,1.18E2,2.1E1,7.4E1,1.68E2,1.06E2,3.2E1,3.4E1,1E0,8E1,1.09E2,8E0,2E0,8E0,2.3E1,9.5E1,7E0,2E0,4E0,1.3E1,3.6E1,6.1E1,2.8E1,6E0,7.6E1,5E0,1E0,2E1,1.1E1,3.6E1,8.2E1,1.2E1,9E0,1.1E1,6.3E1,5E1,1.18E2,5.4E1,5.2E1,2.1E1,1.1E1,3.3E1,1E0,3.8E1,4.2E1,1.3E1,9.6E1,5E0,3E0,4E0,4E0,1.8E1,5E0],"tree_param":{"num_deleted":"0","num_feature":"21","num_nodes":"91","size_leaf_vector":"1"}},{"base_weights":[1.3095117E-3,-7.012621E-2,6.177774E-2,-1.11424215E-1,-4.043418E-2,2.3843931E-2,1.0431779E-1,-1.4936082E-1,-1.0296317E-1,-5.2816633E-2,-2.1272767E-2,8.326365E-3,3.471836E-2,8.524747E-2,1.6141382E-1,-7.766023E-3,-4.4354824E-3,-1.1038876E-1,-8.416827E-2,-6.290933E-2,-4.4878803E-2,-3.2800835E-2,-3.4705363E-3,-9.297036E-5,3.2700572E-2,7.307666E-2,3.0272633E-2,8.22102E-2,1.2156748E-2,1.4105523E-1,2.0682406E-1,-1.1837102E-1,-9.535361E-2,-8.541626E-2,-2.6342124E-4,-4.8279464E-2,-7.247724E-2,-5.0192725E-2,-1.3158981E-2,-2.7398905E-2,-7.2371736E-2,1.2901225E-2,-2.3790631E-2,6.419741E-3,-4.2202305E-2,4.450785E-2,-1.0290427E-2,4.7311943E-2,1.09030336E-1,3.143416E-2,-4.702357E-3,6.9529064E-2,9.736923E-2,1.21197864E-1,1.6932511E-1,1.0688994E-2,1.5187964E-3,-2.0833143E-3,-5.985065E-3,-4.8096175E-3,-1.2934748E-3,-4.3346956E-3,-2.8281214E-4,-3.049553E-3,-6.344623E-4,1.4848904E-3,-3.758426E-3,-1.0734564E-3,-2.6953914E-3,-3.1509174E-3,5.432632E-4,-3.0384592E-3,-1.1722249E-3,-5.1777037E-3,1.2255475E-3,1.1875712E-3,-1.7229071E-3,6.110732E-4,-1.8236818E-3,-6.4456224E-4,1.2414947E-3,-3.100963E-3,4.917726E-4,1.5968903E-3,4.4732536E-3,-2.0860867E-3,2.3250964E-4,2.9368917E-3,2.0313822E-4,3.5619808E-3,7.4134166E-3,1.4728575E-3,5.7506165E-3,2.7704625E-3,3.9447523E-3,4.1446025E-3,5.34228E-3,2.972002E-3,6.809242E-3,8.969812E-3,2.4549821E-3],"categories":[],"categories_nodes":[],"categories_segments":[],"categories_sizes":[],"default_left":[0,0,0,0,0,0,0,0,0,0,0,0,0,0,0,0,0,0,0,0,0,0,0,0,0,0,0,0,0,0,0,0,0,0,0,0,0,0,0,0,0,0,0,0,0,0,0,0,0,0,0,0,0,0,0,0,0,0,0,0,0,0,0,0,0,0,0,0,0,0,0,0,0,0,0,0,0,0,0,0,0,0,0,0,0,0,0,0,0,0,0,0,0,0,0,0,0,0,0,0,0],"id":17,"left_children":[1,3,5,7,9,11,13,15,17,19,21,23,25,27,29,-1,-1,31,33,35,37,39,41,43,45,47,49,51,-1,53,55,57,59,61,-1,63,65,67,69,71,73,75,77,79,81,83,85,87,89,91,-1,93,95,97,99,-1,-1,-1,-1,-1,-1,-1,-1,-1,-1,-1,-1,-1,-1,-1,-1,-1,-1,-1,-1,-1,-1,-1,-1,-1,-1,-1,-1,-1,-1,-1,-1,-1,-1,-1,-1,-1,-1,-1,-1,-1,-1,-1,-1,-1,-1],"loss_changes":[5.351987E0,6.9198847E-1,1.0803096E0,6.0694218E-2,7.764852E-2,5.9784025E-2,3.303132E-1,1.0413527E-3,1.8202782E-2,1.3279676E-2,2.6975907E-2,3.0374803E-2,3.342867E-2,9.4623685E-2,4.2936563E-2,0E0,0E0,5.274892E-3,5.4579675E-3,8.538902E-3,1.8892094E-2,1.51178315E-2,1.7938742E-2,3.0712228E-2,1.9747064E-2,1.4294632E-2,3.0248046E-2,3.8597226E-2,0E0,1.1475921E-2,2.0507812E-2,3.7878752E-3,6.00338E-4,5.5220723E-3,0E0,1.5965179E-2,1.5981406E-2,9.407029E-3,2.2245718E-2,8.076385E-3,2.9727466E-2,1.6234186E-2,1.1407557E-2,3.480535E-2,1.6078433E-2,1.4096115E-2,4.420443E-3,6.6796094E-3,1.3000742E-3,2.7676195E-2,0E0,1.3084948E-2,5.548358E-3,2.6151061E-2,1.661861E-2,0E0,0E0,0E0,0E0,0E0,0E0,0E0,0E0,0E0,0E0,0E0,0E0,0E0,0E0,0E0,0E0,0E0,0E0,0E0,0E0,0E0,0E0,0E0,0E0,0E0,0E0,0E0,0E0,0E0,0E0,0E0,0E0,0E0,0E0,0E0,0E0,0E0,0E0,0E0,0E0,0E0,0E0,0E0,0E0,0E0,0E0],"parents":[2147483647,0,0,1,1,2,2,3,3,4,4,5,5,6,6,7,7,8,8,9,9,10,10,11,11,12,12,13,13,14,14,17,17,18,18,19,19,20,20,21,21,22,22,23,23,24,24,25,25,26,26,27,27,29,29,30,30,31,31,32,32,33,33,35,35,36,36,37,37,38,38,39,39,40,40,41,41,42,42,43,43,44,44,45,45,46,46,47,47,48,48,49,49,51,51,52,52,53,53,54,54],"right_children":[2,4,6,8,10,12,14,16,18,20,22,24,26,28,30,-1,-1,32,34,36,38,40,42,44,46,48,50,52,-1,54,56,58,60,62,-1,64,66,68,70,72,74,76,78,80,82,84,86,88,90,92,-1,94,96,98,100,-1,-1,-1,-1,-1,-1,-1,-1,-1,-1,-1,-1,-1,-1,-1,-1,-1,-1,-1,-1,-1,-1,-1,-1,-1,-1,-1,-1,-1,-1,-1,-1,-1,-1,-1,-1,-1,-1,-1,-1,-1,-1,-1,-1,-1,-1],"split_conditions":[5.851371E-1,3.625755E-1,8.563372E-1,1.1693947E-1,1.0494927E-1,6.8110025E-1,1.1698035E0,6.2580355E-2,2.18521E-1,4.287102E-1,5.4596496E-1,6E0,1.2363953E-1,6.252605E-2,1.2927507E0,-7.766023E-3,-4.4354824E-3,2.671899E-2,4.5428425E-4,2.5758764E-1,7.6916087E-3,1.2824263E-1,2.017E3,3.755695E-1,1.2E1,1.1798764E-1,4.724672E-1,4.9425885E-1,1.2156748E-2,2.017E3,2.386748E-2,2.016E3,3.3804685E-2,4.077193E-2,-2.6342124E-4,8.0093004E-2,3.687722E-1,3E0,2.6461086E-1,4.3488804E-1,3.3519703E-1,6E0,3.1391138E-1,1.2781058E-1,1.4896064E-1,3.755695E-1,3.4790397E-1,1.14531524E-1,9.600073E-6,1.8822698E-1,-4.702357E-3,3E0,1.0514879E0,2.0971699E-1,2.3033825E-1,1.0688994E-2,1.5187964E-3,-2.0833143E-3,-5.985065E-3,-4.8096175E-3,-1.2934748E-3,-4.3346956E-3,-2.8281214E-4,-3.049553E-3,-6.344623E-4,1.4848904E-3,-3.758426E-3,-1.0734564E-3,-2.6953914E-3,-3.1509174E-3,5.432632E-4,-3.0384592E-3,-1.1722249E-3,-5.1777037E-3,1.2255475E-3,1.1875712E-3,-1.7229071E-3,6.110732E-4,-1.8236818E-3,-6.4456224E-4,1.2414947E-3,-3.100963E-3,4.917726E-4,1.5968903E-3,4.4732536E-3,-2.0860867E-3,2.3250964E-4,2.9368917E-3,2.0313822E-4,3.5619808E-3,7.4134166E-3,1.4728575E-3,5.7506165E-3,2.7704625E-3,3.9447523E-3,4.1446025E-3,5.34228E-3,2.972002E-3,6.809242E-3,8.969812E-3,2.4549821E-3],"split_indices":[10,10,10,0,12,10,10,15,0,10,10,16,12,15,10,0,0,15,14,0,15,12,20,0,16,12,0,0,0,20,15,20,14,15,0,12,10,16,0,10,0,18,0,12,12,0,0,12,15,12,0,18,10,12,12,0,0,0,0,0,0,0,0,0,0,0,0,0,0,0,0,0,0,0,0,0,0,0,0,0,0,0,0,0,0,0,0,0,0,0,0,0,0,0,0,0,0,0,0,0,0],"split_type":[0,0,0,0,0,0,0,0,0,0,0,0,0,0,0,0,0,0,0,0,0,0,0,0,0,0,0,0,0,0,0,0,0,0,0,0,0,0,0,0,0,0,0,0,0,0,0,0,0,0,0,0,0,0,0,0,0,0,0,0,0,0,0,0,0,0,0,0,0,0,0,0,0,0,0,0,0,0,0,0,0,0,0,0,0,0,0,0,0,0,0,0,0,0,0,0,0,0,0,0,0],"sum_hessian":[1.237E3,5.67E2,6.7E2,2.36E2,3.31E2,3.55E2,3.15E2,4E1,1.96E2,2E2,1.31E2,1.47E2,2.08E2,2.38E2,7.7E1,3.5E1,5E0,1.37E2,5.9E1,8.5E1,1.15E2,7.9E1,5.2E1,1.1E2,3.7E1,2E1,1.88E2,2.35E2,3E0,5.6E1,2.1E1,8.5E1,5.2E1,5.8E1,1E0,3.6E1,4.9E1,9.8E1,1.7E1,7.1E1,8E0,2.9E1,2.3E1,9.6E1,1.4E1,2.9E1,8E0,1.3E1,7E0,1.87E2,1E0,1.31E2,1.04E2,3.6E1,2E1,2E1,1E0,2E0,8.3E1,5.1E1,1E0,5.7E1,1E0,2.6E1,1E1,1E0,4.8E1,1.2E1,8.6E1,5E0,1.2E1,6E0,6.5E1,6E0,2E0,2.4E1,5E0,6E0,1.7E1,4.7E1,4.9E1,1E1,4E0,2.4E1,5E0,2E0,6E0,1E1,3E0,5E0,2E0,1.84E2,3E0,5.5E1,7.6E1,4.5E1,5.9E1,8E0,2.8E1,1.8E1,2E0],"tree_param":{"num_deleted":"0","num_feature":"21","num_nodes":"101","size_leaf_vector":"1"}},{"base_weights":[9.566977E-4,-5.5261835E-2,7.165864E-2,-9.5243715E-2,-1.9765023E-2,3.9471827E-2,1.1252187E-1,-1.2089094E-1,-7.3746294E-2,-3.3368655E-2,-1.6166785E-3,2.2415252E-2,5.2019928E-2,9.20851E-2,1.5404062E-1,-1.3646162E-1,-1.0516774E-1,-6.6475034E-2,-8.802025E-2,-5.5669576E-2,-2.6142018E-2,6.347512E-3,-3.9388843E-2,-1.9242736E-2,2.6297208E-2,5.8590945E-2,2.6096126E-2,5.106174E-2,9.6422926E-2,1.4089476E-1,1.0250555E-2,-1.3734339E-1,-1.8684332E-3,-8.317009E-5,-1.0649035E-1,-5.272727E-2,-7.599482E-2,-9.854392E-2,-5.915966E-2,1.9158133E-3,-5.8315616E-2,1.4900037E-2,-3.3740204E-2,1.7118204E-2,-1.582771E-2,2.233009E-3,-4.415585E-2,-3.2037675E-2,1.4356561E-2,4.5039672E-2,1.949225E-2,5.5257373E-2,1.1498731E-1,-6.385149E-2,3.563025E-2,-3.7406401E-3,6.2866874E-2,1.3381629E-1,9.2170835E-2,1.2209436E-1,1.7803094E-1,-7.3490664E-3,-5.637323E-3,-5.3776586E-3,-2.221153E-3,-3.856457E-3,-2.0211542E-3,-3.9381096E-3,6.4932014E-4,-1.329475E-3,-5.1762406E-3,-3.421599E-3,5.0063134E-4,-1.6644396E-3,-3.6945269E-3,5.5085682E-5,6.015997E-3,-1.4919102E-3,-3.5949745E-3,1.2279386E-4,1.7692357E-3,-1.2746666E-3,1.9451956E-3,3.043612E-5,-2.7178645E-3,5.6621805E-4,-1.9436738E-3,-5.0564186E-4,1.2941987E-3,1.4899906E-3,5.305622E-3,1.9250918E-3,2.7010692E-4,5.3874585E-3,2.6002917E-3,1.0312889E-3,9.030101E-3,-4.2153005E-3,-6.2198196E-5,1.2196949E-3,2.8964148E-3,1.1169037E-3,4.4501615E-3,1.6023464E-3,8.05712E-3,9.695478E-4,4.6827765E-3,6.293195E-3,3.2628786E-3,9.2856875E-3,3.6295217E-3],"categories":[],"categories_nodes":[],"categories_segments":[],"categories_sizes":[],"default_left":[0,0,0,0,0,0,0,0,0,0,0,0,0,0,0,0,0,0,0,0,0,0,0,0,0,0,0,0,0,0,0,0,0,0,0,0,0,0,0,0,0,0,0,0,0,0,0,0,0,0,0,0,0,0,0,0,0,0,0,0,0,0,0,0,0,0,0,0,0,0,0,0,0,0,0,0,0,0,0,0,0,0,0,0,0,0,0,0,0,0,0,0,0,0,0,0,0,0,0,0,0,0,0,0,0,0,0,0,0,0,0],"id":18,"left_children":[1,3,5,7,9,11,13,15,17,19,21,23,25,27,29,31,33,35,37,39,41,43,45,47,49,51,53,55,57,59,-1,61,-1,-1,63,65,67,69,71,-1,73,75,77,79,81,-1,83,85,87,89,91,93,95,97,99,-1,101,103,105,107,109,-1,-1,-1,-1,-1,-1,-1,-1,-1,-1,-1,-1,-1,-1,-1,-1,-1,-1,-1,-1,-1,-1,-1,-1,-1,-1,-1,-1,-1,-1,-1,-1,-1,-1,-1,-1,-1,-1,-1,-1,-1,-1,-1,-1,-1,-1,-1,-1,-1,-1],"loss_changes":[4.980359E0,9.887395E-1,7.255261E-1,1.7192745E-1,9.15398E-2,6.561053E-2,1.9285154E-1,2.1882296E-2,1.2934744E-2,3.271076E-2,4.838198E-2,2.2175767E-2,2.896288E-2,2.461636E-2,2.4049044E-2,1.0714531E-3,1.05006695E-2,1.2221634E-2,1.1785924E-2,1.4917642E-2,5.102165E-2,3.203699E-2,